tree
version=v4
num_class=1
num_tree_per_iteration=1
label_index=0
max_feature_idx=53
objective=binary sigmoid:1
feature_names=Machine SizeOfOptionalHeader Characteristics MajorLinkerVersion MinorLinkerVersion SizeOfCode SizeOfInitializedData SizeOfUninitializedData AddressOfEntryPoint BaseOfCode BaseOfData ImageBase SectionAlignment FileAlignment MajorOperatingSystemVersion MinorOperatingSystemVersion MajorImageVersion MinorImageVersion MajorSubsystemVersion MinorSubsystemVersion SizeOfImage SizeOfHeaders CheckSum Subsystem DllCharacteristics SizeOfStackReserve SizeOfStackCommit SizeOfHeapReserve SizeOfHeapCommit LoaderFlags NumberOfRvaAndSizes SectionsNb SectionsMeanEntropy SectionsMinEntropy SectionsMaxEntropy SectionsMeanRawsize SectionsMinRawsize SectionMaxRawsize SectionsMeanVirtualsize SectionsMinVirtualsize SectionMaxVirtualsize ImportsNbDLL ImportsNb ImportsNbOrdinal ExportNb ResourcesNb ResourcesMeanEntropy ResourcesMinEntropy ResourcesMaxEntropy ResourcesMeanSize ResourcesMinSize ResourcesMaxSize LoadConfigurationSize VersionInformationSize
feature_infos=[332:34404] [224:352] [2:49551] [0:255] [0:255] [0:1073827840] [0:4294966272] [0:4294940713] [0:1074484297] [0:134217728] [0:268435456] [65536:1.8446735277616529e+19] [16:134217728] [16:65536] [0:36868] [0:17757] [0:28619] [0:20512] [1:10] [0:47600] [0:1410035712] [448:786432] [0:4294967295] [1:16] [0:49504] [0:33554432] [0:2097152] [0:4194304] [0:2077323491] none [7:3402309701] [1:40] [0:7.9955570959299997] [0:7.9955570959299997] [0:7.9999927159500004] [64:1431641941.3299999] [0:28665344] [64:4294885376] [0:1431673348] [0:28664960] [0:4294884876] [0:280] [0:4432] [0:3431] [0:16596] [0:7694] [0:7.9997228675300001] [0:7.9997228675300001] [0:7.99999997868] [0:2415919166] [0:2415919166] [0:4294902624] [0:4294967294] [0:26]
tree_sizes=5394 5332 5385 5356 5355 5373 5374 5391 5390 5408 5380 5401 5382 5394 5380 5390 5411 5400 5405 5394 5442 5428 5433 5413 5423 5438 5431 5408 5414 5437 5426 5425 5436 5445 5426 5423 5423 5455 5406 5413 5452 5458 5458 5450 5486 5450 5450 5420 5477 5436 5451 5464 5447 5469 5446 5470 5492 5460 5453 5476 5470 5452 5484 5456 5480 5461 5465 5471 5451 5461 5467 5445 5468 5440 5427 5473 5472 5443 5459 5487 5458 5463 5476 5422 5444 5475 5486 5473 5491 5472 5483 5456 5422 5454 5434 5495 5482 5489 5441 5437 5511 5480 5477 5446 5485 5460 5485 5420 5453 5481 5485 5474 5483 5472 5497 5437 5452 5470 5485 5492 5494 5455 5485 5474 5490 5492 5513 5448 5507 5496 5529 5486 5521 5486 5501 5496 5479 5517 5487 5551 5494 5455 5496 5535 5507 5491 5522 5492 5533 5492 5520 5495 5547 5535 5535 5518 5511 5514 5519 5523 5503 5525 5502 5553 5534 5549 5529 5538 5577 5526 5548 5539 5568 5534 5526 5537 5521 5542 5528 5553 5569 5559 5553 5562 5532 5556 5552 5566 5542 5538 5529 5540 5574 5531 5519 5549 5557 5538 5530 5512

Tree=0
num_leaves=50
num_cat=0
split_feature=25 23 10 47 22 53 22 22 53 14 4 40 52 53 42 53 50 2 34 2 24 42 46 34 53 2 31 39 16 17 0 12 52 43 48 45 34 50 42 34 2 45 2 53 53 34 2 33 2
split_gain=70932.8 17376.4 5835.74 2320.81 1348.01 1086.05 1004.08 585.06 490.169 389.216 347.497 325.457 305.833 303.832 225.758 266.684 280.262 313.77 129.816 107.868 107.073 97.0458 81.1768 79.1552 67.872 98.1002 65.9083 63.0638 60.5028 87.036 59.8073 58.0927 49.7056 49.157 48.6863 37.8485 37.3746 37.2501 36.709 33.1677 48.1528 29.3371 28.8151 37.5132 27.711 177.932 163.809 60.3175 68.8184
threshold=753664.00000000012 2.5000000000000004 8432.0000000000018 3.2588866437000008 1.0000000180025095e-35 13.500000000000002 11856.500000000002 1.0000000180025095e-35 14.500000000000002 5.5000000000000009 20.500000000000004 34933.500000000007 1.0000000180025095e-35 12.500000000000002 172.50000000000003 15.500000000000002 18.500000000000004 3218.0000000000005 7.2461432004650002 35474.500000000007 192.00000000000003 1.0000000180025095e-35 4.1612080798250011 6.6523353225100008 13.500000000000002 8460.0000000000018 2.5000000000000004 4094.0000000000005 7.5000000000000009 1.0000000180025095e-35 422.00000000000006 6144.0000000000009 1.0000000180025095e-35 13.500000000000002 5.0896823003900016 179.50000000000003 7.970460327825001 395.50000000000006 1.0000000180025095e-35 7.9002584712050004 773.00000000000011 15.500000000000002 258.50000000000006 17.500000000000004 15.500000000000002 6.5543121670600009 8228.0000000000018 2.4314928974550005 288.50000000000006
decision_type=2 2 2 2 2 2 2 2 2 2 2 2 2 2 2 2 2 2 2 2 2 2 2 2 2 2 2 2 2 2 2 2 2 2 2 2 2 2 2 2 2 2 2 2 2 2 2 2 2
left_child=5 2 4 9 30 -1 -5 26 22 11 -9 12 24 21 28 35 -17 23 34 39 -11 -6 -8 32 -4 -26 -3 -14 44 -30 38 36 -18 -34 -10 -16 -15 -36 -2 -7 -41 -19 43 -25 -13 46 -46 -47 -49
right_child=1 7 3 6 13 19 8 10 18 20 -12 14 27 31 15 16 17 41 -20 -21 -22 -23 -24 42 25 -27 -28 -29 29 -31 -32 -33 33 -35 37 -37 -38 -39 -40 40 -42 -43 -44 -45 45 47 -48 48 -50
leaf_value=-0.97614570346122631 -0.69801669341433292 -0.58214591653343151 -0.98708081417768168 -0.9742425397670279 -0.54147576831812239 -0.51949068336288895 -0.60658542480542599 -0.52591930265641662 -0.55719448301263808 -0.99317401019879115 -0.95215959397067795 -0.99270605590811334 -0.5381954615506519 -0.53349306420658249 -0.98490826130461595 -0.97844383266320656 -0.90034713453206572 -0.70009966671556412 -0.89478823793730511 -0.99317401019879126 -0.53675717319876104 -0.93815948073896616 -0.95312343275203859 -0.97673288645217682 -0.90925851459607143 -0.51638142154697397 -0.93416502645475441 -0.86696420732036905 -0.55504028008631079 -0.99317401019879126 -0.62003198429736905 -0.82489427302756169 -0.61571321084943598 -0.88098751875130477 -0.8262966041706552 -0.68325882757511003 -0.81979488705267589 -0.57247466727071727 -0.99317401019879126 -0.87808614397249052 -0.55886788984268054 -0.55929275452563765 -0.9825392312697544 -0.6117399392773375 -0.90894065287030346 -0.99054088807452323 -0.56233733370618533 -0.94864863227021679 -0.70967571424365672
leaf_weight=52.853168964385986 4.4044307470321646 6.082309126853942 65.646991610527039 142.61966228485107 7.9699223041534415 5113.7538321018219 7.7601875066757193 985.54381334781647 208.26665389537811 6.5017787218093899 19.505336165428162 13249.156891465187 32.089424014091492 385.70229256153107 496.02279603481293 128.98690044879913 23.700032114982605 22.861092925071716 13.213292241096495 4.823900341987609 24.538971304893494 27.265523672103882 52.433699369430542 6.0823091268539411 26.216849684715271 8.3893918991088849 42.366429090499878 7.1309831142425528 7.7601875066757229 10.906209468841551 4.823900341987609 7.1309831142425528 20.134540557861332 10.696474671363829 12.584087848663332 4.1946959495544425 4.6141655445098868 10.696474671363829 97.316946029663086 6.0823091268539455 21.183214545249939 41.946959495544434 56.418660521507263 5.2433699369430542 62.92043924331665 1519.1091381311417 17.40798819065094 53.901842951774597 15.520375013351439
leaf_count=252 21 29 313 680 38 24382 37 4699 993 31 93 63171 153 1839 2365 615 113 109 63 23 117 130 250 29 125 40 202 34 37 52 23 34 96 51 60 20 22 51 464 29 101 200 269 25 300 7243 83 257 74
internal_value=-0.850452 -0.944593 -0.969141 -0.979803 -0.645455 -0.525153 -0.755225 -0.550553 -0.652795 -0.986115 -0.534191 -0.986806 -0.834721 -0.566996 -0.988153 -0.936944 -0.865038 -0.786849 -0.589923 -0.520521 -0.632358 -0.848433 -0.908448 -0.881132 -0.927341 -0.814016 -0.889972 -0.597972 -0.990951 -0.811029 -0.964078 -0.542045 -0.791454 -0.707747 -0.572525 -0.982379 -0.536878 -0.709676 -0.980394 -0.520077 -0.630078 -0.608963 -0.953318 -0.807755 -0.991176 -0.979033 -0.833828 -0.986375 -0.895223
internal_weight=23162.5 17963.8 16910.3 16371.1 539.228 5198.7 447.574 1053.5 304.954 15923.5 1005.05 15892.4 139.474 432.683 15753 816.288 316.07 187.083 244.761 5145.84 31.0408 35.2354 60.1939 122.275 100.253 34.6062 48.4487 39.2204 14936.7 18.6664 106.545 397.447 54.531 30.831 231.547 500.217 390.316 23.2806 101.721 5141.02 27.2655 64.8081 67.7443 11.3257 14918 1668.86 80.3284 1588.53 69.4222
internal_count=110437 85650 80627 78056 2571 24787 2134 5023 1454 75922 4792 75774 665 2063 75109 3892 1507 892 1167 24535 148 168 287 583 478 165 231 187 71217 89 508 1895 260 147 1104 2385 1861 111 485 24512 130 309 323 54 71128 7957 383 7574 331
is_linear=0
shrinkage=1


Tree=1
num_leaves=50
num_cat=0
split_feature=11 23 14 53 24 3 15 23 40 11 13 53 46 22 3 33 6 48 53 48 48 13 11 24 22 9 40 42 33 14 49 22 43 3 52 48 22 31 49 40 47 50 33 2 51 10 42 46 32
split_gain=66843.8 8793.42 2157.8 641.49 333.373 230.377 200.315 180.083 128.302 102.574 93.7169 81.3701 80.9195 75.583 70.2005 59.0518 57.8754 56.8498 53.1013 69.034 51.585 47.9347 45.9295 168.017 69.0583 117.286 68.0211 34.0308 45.2168 29.5875 29.4219 27.6959 26.3631 29.7414 34.81 26.0601 25.9601 25.9152 28.2323 24.099 44.8114 23.4961 19.11 18.9387 28.0186 17.3829 16.8762 16.5344 14.7062
threshold=14942208.000000002 2.5000000000000004 5.5000000000000009 14.500000000000002 304.00000000000006 6.5000000000000009 1.5000000000000002 1.5000000000000002 4096.5000000000009 1882849280.0000002 1536.0000000000002 15.500000000000002 4.8773401238250012 21743.000000000004 9.5000000000000018 1.0000000180025095e-35 192768.00000000003 3.4880309320450005 15.500000000000002 4.9372113924350005 5.0012291600350016 1536.0000000000002 397901824.00000006 49.500000000000007 1.0000000180025095e-35 2816.0000000000005 76413.500000000015 519.50000000000011 3.2030124479750008 5.5000000000000009 614.58333333350004 128933.00000000001 1.0000000180025095e-35 9.5000000000000018 1.0000000180025095e-35 5.0503157349100007 358202.50000000006 3.5000000000000004 2237.0107142850006 15067.500000000002 3.3904277780350003 597.00000000000011 4.2346823203850006 8228.0000000000018 626.00000000000011 8432.0000000000018 61.500000000000007 4.2756071982900012 4.6034062760150007
decision_type=2 2 2 2 2 2 2 2 2 2 2 2 2 2 2 2 2 2 2 2 2 2 2 2 2 2 2 2 2 2 2 2 2 2 2 2 2 2 2 2 2 2 2 2 2 2 2 2 2
left_child=1 2 6 4 9 21 7 -1 30 41 27 -12 17 -13 20 -15 37 -4 19 43 -6 -3 23 26 25 -25 -5 39 -29 32 -9 -28 -26 34 42 -33 -8 -17 -39 40 -10 -2 -34 44 -7 -16 -22 -37 -18
right_child=3 5 12 22 14 18 36 8 10 -11 11 13 -14 15 45 16 48 -19 -20 -21 46 -23 -24 24 29 -27 31 28 -30 -31 -32 35 33 -35 -36 47 -38 38 -40 -41 -42 -43 -44 -45 -46 -47 -48 -49 -50
leaf_value=0.20940903331963498 -0.10181889824659758 -0.086324126779198818 -0.071568635998320182 0.22740942840920864 0.25863532097763808 -0.044555494102027138 -0.0069239838855350818 -0.036602900839476475 -0.10956815504919165 0.24775664179952789 -0.12378446262948689 -0.10320201637242871 -0.080717928482986923 -0.13229209345326806 0.14088545056953519 0.28694180222286952 0.10223323764122866 0.26167670748267274 0.26522396812296406 -0.086038117039182016 0.20261588180166284 0.16426063825841952 0.26681308487570393 0.26811711849019598 0.25264159590451418 -0.13348996193657611 -0.057083984290265233 -0.11126073872024329 0.17588227202198359 0.26674130547363467 0.27243054622310525 0.17562332026263419 0.15227088007700665 0.040783747316115733 0.24110400114334377 -0.019002449704777373 0.27430259102496152 0.17110827792048772 -0.059160590035719066 -0.13558995917882419 0.15790920488822507 0.073041435801938046 -0.068827508322537589 0.26484533848107977 0.26888476346555418 -0.10419790487808132 -0.030251894514711133 0.1529018766791842 -0.10836187316298923
leaf_weight=15.305548802018164 79.377056434750557 23.881862327456474 5.3018906414508811 40.758996531367302 86.623897016048431 5.8049359917640668 4.3683277517557153 4.609886407852172 32.641388177871704 10.362843766808508 172.81914615631104 58.299519658088684 7.7626328319311133 14.142887145280836 4.4370286315679541 11.87993800640106 4.4419297873973873 148.54978512227535 580.90415607392788 9.5298623442649824 4.7552790641784659 11.220371499657629 4982.421898111701 18.007505774497986 329.41903404891491 12.1974333524704 14.887697026133536 17.05503419041634 8.0832597315311414 1213.9285649657249 9.2877169549465162 23.319533482193947 22.900380104780201 10.718027949333189 101.91342024505138 19.108729600906376 13.204192578792572 20.070677861571316 7.2469930648803702 14754.512405797839 7.7507235556840888 8.5081401616334897 4.713911145925521 25.065898790955544 5.6062027961015701 8.321537569165228 9.0064549893140775 7.9118738621473303 13.080650478601454
leaf_count=67 397 117 25 179 377 27 21 22 161 45 871 289 37 70 20 54 21 637 2489 44 21 49 21337 77 1417 56 71 84 38 5193 40 103 99 47 442 87 57 93 35 74708 35 39 21 108 24 41 44 36 65
internal_value=-0.00087718 -0.113759 -0.129168 0.256516 0.08496 0.243075 -0.13304 -0.133432 -0.133778 -0.0498043 -0.134058 -0.0789084 0.234298 -0.0188644 0.201982 0.0505207 0.0961041 0.250193 0.257033 0.153617 0.230063 -0.00622512 0.261847 0.24825 0.255807 0.105939 0.126065 -0.135181 -0.0189294 0.258496 0.169923 0.0627375 0.237183 0.200872 0.214119 0.0981738 0.204393 0.163642 0.110021 -0.135379 -0.0582427 -0.0848907 0.114528 0.216228 0.109435 -0.0189656 0.0502141 0.0313327 -0.0549765
internal_weight=23006 15992.4 15330.4 7013.6 211.392 662.013 15168.8 15151.2 15135.9 98.248 15122 301.982 161.614 129.163 113.144 70.8631 56.7202 153.852 626.911 46.0069 100.386 35.1022 6802.21 1819.79 1713.8 30.2049 105.987 14820 25.1383 1683.59 13.8976 65.2278 469.665 140.246 129.528 50.3401 17.5725 39.1976 27.3177 14794.9 40.3921 87.8852 27.6143 36.477 11.4111 12.7586 13.7617 27.0206 17.5226
internal_count=110437 80288 77430 30149 984 2858 76731 76653 76586 481 76524 1498 699 627 503 338 268 662 2692 203 442 166 29165 7828 7352 133 476 75026 122 7219 62 297 2026 609 562 226 78 182 128 74904 196 436 120 159 51 61 65 123 86
is_linear=0
shrinkage=0.1


Tree=2
num_leaves=50
num_cat=0
split_feature=25 34 44 2 23 14 23 14 22 19 0 51 22 33 24 8 50 2 13 2 5 22 50 3 47 50 22 34 22 16 34 7 33 41 22 34 45 42 34 40 45 42 48 34 43 3 51 47 19
split_gain=42042.3 11852.8 4003.16 1616.91 1098.74 463.558 434.892 395.275 376.549 279.277 235.965 133.672 93.9718 90.6566 85.4959 78.8832 77.1184 76.9348 75.2188 87.2135 66.5196 62.5923 59.8345 59.0933 45.6205 45.0383 41.3666 71.0241 39.0619 38.7851 44.2482 35.2194 31.8484 31.0284 30.8045 30.0697 44.1509 29.7902 53.7458 30.0123 50.3272 27.9142 21.8839 21.1635 19.2726 20.5962 18.9098 18.8638 18.6622
threshold=753664.00000000012 6.3032195674000002 1.0000000180025095e-35 4934.5000000000009 2.5000000000000004 4.5000000000000009 2.5000000000000004 5.5000000000000009 11856.500000000002 1.5000000000000002 422.00000000000006 626.00000000000011 1.0000000180025095e-35 1.0000000180025095e-35 304.00000000000006 1.0000000180025095e-35 173.50000000000003 2710.0000000000005 1536.0000000000002 8228.0000000000018 16640.000000000004 46474.000000000007 76.500000000000014 6.5000000000000009 3.6139923798050004 32.500000000000007 53957.000000000007 6.6090594296100011 11856.500000000002 7.5000000000000009 6.8346340750800012 1.0000000180025095e-35 2.4638551525200003 7.5000000000000009 11856.500000000002 7.9002584712050004 9.5000000000000018 519.50000000000011 6.641648720640001 26365.000000000004 8.5000000000000018 10.500000000000002 3.1226097743900003 6.6945464297000008 1.0000000180025095e-35 9.5000000000000018 2575.0000000000005 4.9693246166950011 1.0000000180025095e-35
decision_type=2 2 2 2 2 2 2 2 2 2 2 2 2 2 2 2 2 2 2 2 2 2 2 2 2 2 2 2 2 2 2 2 2 2 2 2 2 2 2 2 2 2 2 2 2 2 2 2 2
left_child=5 3 4 6 7 16 10 9 43 15 20 33 23 -8 -9 -3 -1 25 29 26 22 -6 -2 -5 41 -13 -20 46 -15 37 -31 -23 -22 -10 -24 42 -37 39 -39 40 -17 -19 -7 -4 -43 48 -28 -14 -46
right_child=1 2 8 12 21 35 13 14 11 -11 -12 17 47 28 -16 18 -18 24 19 -21 32 31 34 -25 -26 -27 27 -29 -30 30 -32 -33 -34 -35 -36 36 -38 38 -40 -41 -42 44 -44 -45 45 -47 -48 -49 -50
leaf_value=-0.12164041616687021 -0.079092062335718971 0.19825758644496297 -0.00035126978831709094 -0.098542339975953797 -0.059520753497872773 -0.013247053445158497 -0.11924932989425062 -0.13700313731069627 0.068468259042762561 0.17374530989323225 0.2139921821097692 -0.065591416805669753 0.22257346270899495 -0.024485361790310113 0.21730139198990583 -0.098240310080483742 0.17482570257279317 -0.046729013462751635 -0.12480482252376442 0.22743333232106738 -0.11344204815416069 0.2011625323801515 -0.017489082012447119 0.17498980002671374 -0.11521497010675708 0.143169833433126 0.23666050203209232 -0.090918184939301927 0.22425728820408206 0.23604714399162452 -0.12329101058433758 -0.062683387324582535 0.025913169878664707 -0.11755147151662038 0.18750799699727894 0.20330958110599118 -0.050800096244970616 0.2117263105225563 -0.1239028126162969 -0.13098826903811173 0.20363193454334294 0.21625408008276834 0.22656863184694145 -0.12452647991376398 0.15985165582129787 0.067307456300895338 0.050037092031286291 0.029538922947576748 0.22986214517362968
leaf_weight=44.887755274772644 36.355625718832016 7.345613256096839 19.631874918937683 14.782770290970804 11.090504214167593 3.8075475245714179 9.3847991079092008 8.19694536924362 19.153289750218391 30.465902104973793 29.816510021686554 18.447603911161423 1263.7987912297249 6.798430159687995 40.272218450903893 27.354975432157516 10.906009241938589 4.6812413781881324 100.04918287694454 9.5772216618061048 234.86975626647472 110.89034023880959 11.80705799162388 16.958734571933746 4.7544800937175742 23.497782111167908 8.5062916576862353 53.587992951273918 88.461898535490036 6.1777727007865888 7.695479229092598 5.3010411113500586 17.631002515554428 16.860238015651703 19.332735285162926 24.32367941737175 9.511106997728346 7.1203512698411968 14.461432218551634 13551.456360951066 6.9198243618011466 260.14582353830338 5985.1314305365086 45.617832168936729 108.3254129588604 16.488184541463852 15.01029998064041 5.0827998965978614 58.710744172334671
leaf_count=237 188 31 97 75 55 18 47 42 93 128 124 94 5161 33 165 140 45 21 531 40 1248 453 61 74 21 103 39 277 361 26 40 27 86 88 83 101 46 32 74 73285 29 1072 24340 238 460 71 73 24 240
internal_value=-0.00135899 -0.0847385 -0.11422 0.160812 -0.125012 0.223227 -0.00156448 -0.127692 0.139538 -0.12869 -0.0550684 0.167392 0.217549 0.177291 0.157383 -0.129357 -0.0636902 0.180923 -0.129531 -0.0664935 -0.0801388 0.16746 0.00804657 0.0475994 0.192918 0.0513565 -0.0823836 -0.0273388 0.206505 -0.130395 0.0367226 0.189125 -0.103711 -0.0186195 0.109781 0.225885 0.131878 -0.130565 -0.0131707 -0.130752 -0.0372946 0.196185 0.226416 -0.0871655 0.198748 0.173934 0.117541 0.2218 0.184459
internal_weight=22451.4 16372.9 14617.8 1755.08 14021.5 6078.57 454.458 13894.2 596.315 13845.7 349.813 531.065 1300.62 104.645 48.4692 13815.3 55.7938 495.051 13807.9 186.731 319.996 127.282 67.4954 31.7415 453.106 41.9454 177.154 77.1046 95.2603 13621.2 13.8733 116.191 252.501 36.0135 31.1398 6022.77 33.8348 13607.3 21.5818 13585.7 34.2748 448.351 5988.94 65.2497 443.67 183.524 23.5166 1268.88 167.036
internal_count=110437 85650 78085 7565 75487 24787 2231 74952 2598 74745 1790 2263 5334 441 207 74617 282 2082 74586 960 1666 535 332 149 1885 197 920 389 394 73626 66 480 1334 181 144 24505 147 73560 106 73454 169 1864 24358 335 1843 771 112 5185 700
is_linear=0
shrinkage=0.1


Tree=3
num_leaves=50
num_cat=0
split_feature=11 50 14 53 22 53 24 31 15 2 13 11 53 34 22 34 34 3 34 40 48 36 45 3 53 17 50 53 51 33 50 31 22 47 34 53 22 27 52 39 53 52 3 49 24 20 11 22 41
split_gain=43778.8 4881.68 1359.32 1114.32 386.485 367.945 210.979 191.857 159.391 122.495 90.2607 71.5921 68.4886 57.5555 55.4694 52.8662 49.6518 45.6459 45.4467 38.8714 32.7109 32.6166 49.5348 29.3249 26.1057 24.8545 24.2134 22.309 21.4158 30.1689 19.6167 19.3668 17.7487 17.6404 17.1643 37.1487 43.3632 16.0361 15.543 18.029 15.2503 45.3548 15.1177 14.7598 14.4565 13.4787 11.9523 42.6912 60.1912
threshold=14942208.000000002 185.00000000000003 5.5000000000000009 15.500000000000002 1.0000000180025095e-35 14.500000000000002 304.00000000000006 2.5000000000000004 1.5000000000000002 8228.0000000000018 1536.0000000000002 1837596672.0000002 15.500000000000002 7.6383585802200011 38530.000000000007 7.6983889092550006 6.5627510054450005 9.5000000000000018 7.5922561494400007 20482.000000000004 5.0012291600350016 25344.000000000004 41.500000000000007 6.5000000000000009 16.500000000000004 1.0000000180025095e-35 76.500000000000014 17.500000000000004 826.00000000000011 3.5641528855150004 89.000000000000014 4.5000000000000009 353240.50000000006 4.9693246166950011 6.2865617164300014 14.500000000000002 17319.500000000004 1941504.0000000002 1.0000000180025095e-35 2658.0000000000005 13.500000000000002 1.0000000180025095e-35 10.500000000000002 2272.9500000000003 49.500000000000007 722944.00000000012 397901824.00000006 1.0000000180025095e-35 1.5000000000000002
decision_type=2 2 2 2 2 2 2 2 2 2 2 2 2 2 2 2 2 2 2 2 2 2 2 2 2 2 2 2 2 2 2 2 2 2 2 2 2 2 2 2 2 2 2 2 2 2 2 2 2
left_child=1 2 7 19 38 6 11 9 10 24 21 33 -12 28 -15 -4 23 20 -6 -3 -8 34 -23 27 -1 31 -18 -14 29 -7 -28 -16 -10 -2 35 -9 -37 46 -5 -40 -21 -42 -19 -25 -31 -11 47 48 -30
right_child=5 3 15 4 18 13 17 8 32 45 12 -13 16 14 25 -17 26 42 -20 40 -22 22 -24 43 -26 -27 30 -29 37 44 -32 -33 -34 -35 -36 36 -38 -39 39 -41 41 -43 -44 -45 -46 -47 -48 -49 -50
leaf_value=-0.12116777788099792 -0.096548941779121045 0.060163210184974662 0.19988831920833466 -0.10371393489126784 0.19687321101659927 0.17539960634111756 0.195359226272242 -0.12407315458352429 -0.015692978923356169 0.20025176934883612 -0.1109017165052 0.169941584827075 0.095267133201927381 -0.14146017833766808 0.12592335700156745 -0.052363275226350703 -0.10661028969912334 -0.1019937045742717 -0.032932597321939948 -0.12668199012034345 0.032584667878673319 -0.12897030440825277 0.13938245001375624 0.17573139605295429 0.12046755490295194 0.17899402354809718 0.23455137634496098 -0.091757340335591922 0.19825273794955245 -0.10778422034734303 -0.036840324886590996 -0.073898402530496468 0.2111281466137602 0.070786593606711593 -0.12708001682059408 -0.094637517530600831 0.12339479454523512 0.062942601635356449 0.16096008578473189 -0.12899940682023728 -0.10742272428891311 0.19601810796186925 0.12958807659194913 0.0039943484775874947 0.099411284499906993 0.013927803059817426 0.20196229098376228 0.1948529812849748 -0.049009769750874795
leaf_weight=31.515551701188087 74.1880853921175 14.087021961808203 135.66080830991268 46.61656753718853 669.21741582453251 115.90691018104553 93.24221034348011 96.973755091428757 4.4626073241233835 29.804914861917496 149.75860796868801 13.060679256916044 10.954414144158363 7.7871525436639777 12.322290971875193 8.8502731174230558 44.335747838020325 8.5945600271224958 8.7176949232816678 141.74696545302868 14.229916110634802 16.873426064848903 11.612477228045462 20.773947447538379 5.2102779597043982 48.537542924284935 3.9939264059066755 15.266715049743652 22.57798820734024 5.3839248567819569 7.9946630448102951 7.9988814890384665 15.20120458304882 6.8845093101263037 12575.897024869919 22.807164713740349 15.201771467924116 8.6054666489362699 5.1797178387641889 3.6592491567134857 26.307540103793144 6.0605556368827811 4.1946866661310187 6.5925439298152915 8.9910560995340347 4.463998779654502 5236.2858850955963 1781.6363872438669 17.457079216837883
leaf_count=178 393 65 544 260 2692 469 377 547 22 120 837 55 54 39 52 44 241 42 44 805 65 97 53 89 24 197 17 79 92 23 42 35 61 33 72916 119 70 36 23 21 144 27 19 32 37 21 20960 7144 81
internal_value=-0.00164397 -0.105082 -0.120578 0.117453 0.173156 0.193904 0.0647894 -0.123946 -0.12484 0.0399982 -0.12527 -0.0473361 -0.0669046 0.19771 0.111512 0.18444 -0.00695704 0.152554 0.193918 -0.0996127 0.173807 -0.12646 -0.0195744 0.0619496 -0.0868871 0.14012 -0.0725156 -0.013624 0.198628 0.158453 0.0535722 0.0472689 0.159652 -0.0823392 -0.126699 -0.0912297 -0.00743494 0.199369 -0.080661 0.0409196 -0.11254 -0.0506069 -0.0260383 0.13436 0.0218094 0.175981 0.199535 0.192558 0.0904352
internal_weight=21643.7 14155.8 13234.2 921.593 733.391 7487.89 214.395 13089.7 13018.7 70.9947 12999 94.1333 259.671 7273.49 76.6459 144.511 109.912 120.261 677.935 188.202 107.472 12739.4 28.4859 53.5876 36.7258 68.8587 56.3243 26.2211 7196.84 130.282 11.9886 20.3212 19.6638 81.0726 12710.9 134.983 38.0089 7066.56 55.4555 8.83897 174.115 32.3681 12.7892 27.3665 14.375 34.2689 7057.96 1821.67 40.0351
internal_count=110437 80288 76207 4081 3040 30149 984 75619 75276 343 75193 481 1391 29165 323 588 554 503 2736 1041 442 73802 150 254 202 284 300 133 28842 529 59 87 83 426 73652 736 189 28313 304 44 976 171 61 121 60 141 28277 7317 173
is_linear=0
shrinkage=0.1


Tree=4
num_leaves=50
num_cat=0
split_feature=11 23 14 53 24 15 23 36 40 47 13 11 34 53 34 22 34 22 22 22 22 43 23 34 16 24 51 33 36 8 50 3 25 25 27 3 2 46 10 22 24 8 16 11 34 34 43 52 3
split_gain=36614.2 5392.97 1328.91 295.651 170.599 129.379 113.721 110.125 95.0641 69.2314 64.5892 58.9352 51.0083 50.4012 47.4482 46.9978 46.1884 45.2969 38.1476 29.223 27.6413 22.6392 21.9931 19.7867 19.4996 31.7523 18.8485 24.187 17.3086 33.3022 16.1271 14.7922 14.006 13.5834 13.409 13.3366 15.946 13.247 12.7229 12.0994 11.7859 11.6612 11.5647 37.2248 32.8628 14.5574 11.5665 29.9022 22.4534
threshold=14942208.000000002 2.5000000000000004 5.5000000000000009 14.500000000000002 304.00000000000006 1.5000000000000002 1.5000000000000002 503.00000000000006 17774.000000000004 2.3399960898350005 1536.0000000000002 1837596672.0000002 7.6383585802200011 15.500000000000002 7.6383585802200011 1.0000000180025095e-35 6.6136358111600009 38530.000000000007 1.0000000180025095e-35 11856.500000000002 66887.000000000015 29.500000000000004 2.5000000000000004 6.7175058502450016 7.5000000000000009 33072.000000000007 826.00000000000011 3.5641528855150004 18688.000000000004 978592.00000000012 597.00000000000011 9.5000000000000018 2024288.0000000002 1024288.0000000001 1941504.0000000002 6.5000000000000009 258.50000000000006 4.5677162120700006 22528.000000000004 364747.50000000006 49.500000000000007 1.0000000180025095e-35 5.5000000000000009 503742464.00000006 6.2773290001700017 7.2461432004650002 1.0000000180025095e-35 1.0000000180025095e-35 9.5000000000000018
decision_type=2 2 2 2 2 2 2 2 2 2 2 2 2 2 2 2 2 2 2 2 2 2 2 2 2 2 2 2 2 2 2 2 2 2 2 2 2 2 2 2 2 2 2 2 2 2 2 2 2
left_child=1 2 5 4 11 6 -1 -3 9 -8 24 30 -4 -12 26 35 20 -16 -6 -11 -15 37 33 31 28 -26 27 -5 41 -30 -2 32 -20 -19 42 -9 -37 -22 -18 -7 -29 -10 43 44 -28 46 -46 -48 -49
right_child=3 7 12 14 18 39 8 15 10 19 13 -13 -14 16 17 -17 38 22 23 -21 21 -23 -24 -25 25 -27 34 40 29 -31 -32 -33 -34 -35 -36 36 -38 -39 -40 -41 -42 -43 -44 -45 45 -47 47 48 -50
leaf_value=0.14342760100527041 -0.093523810003632732 -0.089147896253353981 0.17374413506130326 0.15733317069304528 -0.12560976333314902 0.0017720403406089758 -0.10298359677647184 -0.084339258127294675 0.14531642072129161 -0.040443440789586567 -0.11163109938196354 0.15076874120179773 -0.068171201966515896 -0.058396018646475895 -0.13615716135080283 0.18032597753098689 0.037604636894152124 0.11625811281588812 0.1779779054304404 0.15915084936837495 0.1422865904214495 -0.10360395218893655 0.18242309802073467 -0.031069378366600255 -0.12693886875245711 0.25202707586644874 0.17189675834413995 -0.09985727366562408 -0.10254969116931206 0.11793577381701648 0.051810310347312621 0.031650467469523325 0.0069186979051460819 -0.014213557640539063 0.056243007704529682 -0.037234368205292127 0.1467080245980783 -0.047260750069544805 -0.1076352086663049 0.18988491996767443 0.088488769134300108 -0.12338480238194194 0.18351067324880921 0.18213977915225785 0.14976847592515463 -0.0038416896722143386 0.0047198946351453856 0.15021343308176749 -0.043405357158987662
leaf_weight=16.249772727489471 69.179878830909729 16.157979398965836 161.1560024023056 116.25890292227268 5.2816753238439551 4.5285666584968576 35.19438524544239 6.1006184369325664 1.6153336167335499 10.663946077227591 141.10190074145794 13.237835258245466 9.2142792493104917 19.149518877267838 7.3061555474996558 654.81821912527084 6.9300253093242636 22.292120948433876 95.774746626615524 23.501786857843399 29.46605272591114 5.3095125257968894 34.338901251554489 5.7802578508853903 5.6260083615779859 3.642296314239502 333.40546461939812 5.237851440906522 36.495708271861076 8.433305621147154 8.5824580043554288 8.4451549351215345 5.0383450090885153 12.428194031119345 8.6640639752149564 7.1688536256551751 13.75678962469101 4.2144189476966849 46.509652078151703 13.958059310913086 9.0850975811481476 11947.125263720751 4769.0892015695572 1695.4464661926031 108.50845286250114 8.8369619697332364 23.768531143665314 68.806554794311523 6.5605370551347724
leaf_count=67 388 91 651 469 26 22 197 33 7 57 845 55 48 102 39 2638 35 91 389 96 129 27 138 27 34 16 1342 23 220 37 38 39 22 55 36 38 58 21 270 56 37 74493 19218 6831 443 38 98 278 29
internal_value=-0.00182658 -0.101651 -0.116721 0.175626 0.0590358 -0.120545 -0.120941 0.168878 -0.121289 -0.00454731 -0.12195 -0.0442796 0.16066 -0.0719157 0.179034 0.174992 -0.0216919 0.100627 0.137175 0.0968527 0.0399918 0.088314 0.125678 0.14924 -0.123003 0.0219887 0.179871 0.142227 -0.123116 -0.0611639 -0.0774836 0.158779 0.169429 0.0695556 0.180571 0.0457622 0.0836917 0.118569 -0.0888006 0.143804 0.0196113 -0.123348 0.180725 0.174807 0.152198 0.12186 0.127209 0.102517 0.133359
internal_weight=20669.4 13228.1 12530.1 7441.35 211.32 12359.7 12341.2 698.002 12325 69.3601 12255.6 91.0002 170.37 252.681 7230.03 681.844 111.579 76.3654 120.32 34.1657 58.1395 38.99 69.0592 115.039 12002.9 9.2683 7153.67 130.582 11993.7 44.929 77.7623 109.258 100.813 34.7203 7023.09 27.0263 20.9256 33.6805 53.4397 18.4866 14.3229 11948.7 7014.42 2245.33 549.887 216.481 207.644 99.1356 75.3671
internal_count=110437 80288 77430 30149 984 76731 76653 2858 76586 350 76236 481 699 1429 29165 2767 584 323 503 153 279 177 284 477 74807 50 28842 529 74757 257 426 450 411 146 28313 129 96 150 305 78 60 74500 28277 9059 2228 886 848 405 307
is_linear=0
shrinkage=0.1


Tree=5
num_leaves=50
num_cat=0
split_feature=53 34 2 16 50 2 50 25 2 31 34 2 46 44 3 45 52 53 40 53 53 41 42 48 2 5 0 27 48 48 51 19 52 10 53 46 44 0 16 37 34 43 20 38 39 43 13 39 38
split_gain=27593.7 5575.94 842.711 1186.47 527.921 377.035 360.31 319.527 313.99 158.356 123.441 103.494 76.8449 75.2077 71.8509 54.6015 53.5688 48.8205 45.6522 77.9048 40.5844 70.8617 37.0398 33.8403 39.2634 29.7697 29.3094 29.245 29.2212 27.1461 24.7777 23.1682 33.4698 26.0598 22.1488 20.6668 20.4935 20.2722 19.1555 21.942 17.0335 16.497 15.9047 15.0793 14.7647 13.9305 13.6712 15.8931 13.5763
threshold=15.500000000000002 7.6383585802200011 1294.5000000000002 4.5000000000000009 189.00000000000003 29000.000000000004 76.500000000000014 1024288.0000000001 4934.5000000000009 2.5000000000000004 6.5543121670600009 8228.0000000000018 4.2385168785500005 2.5000000000000004 6.5000000000000009 52.500000000000007 1.0000000180025095e-35 14.500000000000002 26365.000000000004 13.500000000000002 13.500000000000002 1.5000000000000002 687.50000000000011 6.1221986384650009 258.50000000000006 7625.5000000000009 422.00000000000006 1941504.0000000002 3.5125512760600004 3.6159898955350003 826.00000000000011 1.0000000180025095e-35 1.0000000180025095e-35 25728.000000000004 17.500000000000004 4.2468730387900004 3.5000000000000004 422.00000000000006 5.5000000000000009 472832.00000000006 6.6749142599250009 33.500000000000007 50106.000000000007 26377.000000000004 20492.000000000004 11.500000000000002 1536.0000000000002 511.50000000000006 2710.7500000000005
decision_type=2 2 2 2 2 2 2 2 2 2 2 2 2 2 2 2 2 2 2 2 2 2 2 2 2 2 2 2 2 2 2 2 2 2 2 2 2 2 2 2 2 2 2 2 2 2 2 2 2
left_child=4 2 3 6 9 30 10 38 20 11 16 -1 -10 18 -5 44 26 29 19 -11 48 -22 37 28 -25 -9 46 31 40 -15 35 32 33 -16 -17 -4 -27 -20 39 -3 -8 -14 -21 -35 -12 -36 -2 -48 -6
right_child=1 7 5 14 8 -7 23 25 12 13 15 -13 41 17 27 34 -18 -19 22 42 21 -23 -24 24 -26 36 -28 -29 -30 -31 -32 -33 -34 43 45 -37 -38 -39 -40 -41 -42 -43 -44 -45 -46 -47 47 -49 -50
leaf_value=-0.11114810681488163 -0.095335363619408545 -0.11527587166571727 0.13595954127406662 -0.089313423044201479 0.081853918411676427 -0.12427109339207548 0.061554291864067259 0.087371400459646836 0.1562321749926657 -0.11083682189979061 -0.11423188989370772 0.14319935900384825 -0.031218502004521188 0.041315294965977141 0.12267843018972691 -0.024901629895422394 0.1508353038020194 0.13545909690744504 -0.12125102080279758 -0.00093774794075441106 -0.11982995252360543 0.14307139861201057 0.16112710478128381 0.10967788065616189 -0.066339163426882009 -0.11987179860118161 0.14591919704097661 -0.056679276911105414 0.12513294139751965 -0.11596770542745233 0.16790053877799868 0.16928436878935793 0.15941384990709839 0.068246408497179528 0.29855254343068721 0.0036409341579516871 0.0016590926216539009 0.041630757193537232 0.15894145985712302 0.10764389502630119 -0.11504221067358776 0.18129517915903118 0.19380551131946297 -0.082079888576637353 0.03931918566788415 0.039465434684516187 0.16952062876762919 -0.033538271038184644 -0.11539980854571007
leaf_weight=27.631751224398613 28.075429528951645 6.2757049500942257 89.909599378705025 11.797847121953962 3.5894320011138907 44.697331234812737 19.083745241165165 7.1124852299690238 114.6944308578968 42.050082176923752 311.84970466792583 37.996543288230896 33.697915494441986 16.527240335941315 44.562983587384224 15.519224017858507 26.71126951277256 16.546408236026764 9774.9044593572617 6.1544894427061108 21.728584945201874 19.411534011363983 4.6516285985708228 23.251717612147331 27.854700908064842 903.82664221525192 9.1656876355409604 6.2427249997854224 139.54581995308399 32.655527591705322 6569.4848128259182 705.20168495178223 145.59859934449196 14.258139893412592 4.4308663457632047 13.587988033890722 14.09160967171192 7.6470857560634604 40.504714518785477 14.896206691861151 7.6518589258193961 4.0969453006982794 13.163452699780462 12.542938023805617 6.390409678220748 3.9036060273647308 4.8348282724618938 19.009341284632683 124.99223333597183
leaf_count=177 164 34 369 72 16 293 92 35 476 256 2063 160 169 82 183 86 123 71 65810 31 132 86 20 112 161 6048 38 27 617 195 27100 2908 598 58 23 57 68 33 166 63 48 17 55 60 38 19 21 96 811
internal_value=-0.00194469 0.123011 0.149712 0.0841848 -0.114647 0.165197 -0.0200084 -0.101733 0.0113371 -0.118714 -0.0730641 0.0361104 0.115482 -0.119739 0.155916 -0.100211 0.0327112 -0.0131265 -0.12045 -0.0344694 -0.0822332 0.00421729 -0.12099 0.0849105 0.0137427 -0.116427 -0.0189419 0.159032 0.106784 -0.0631148 0.167136 0.160493 0.131916 0.0758149 0.0457141 0.118588 -0.118006 -0.121124 0.11865 0.0415668 0.0110115 -0.00818212 0.131762 -0.00210649 -0.111149 0.177204 -0.0480458 0.00763552 -0.109893
internal_weight=19594 9291.87 8305.16 1587.48 10302.1 6717.68 647.278 986.707 322.211 9979.93 429.89 65.6283 152.489 9914.3 940.205 342.094 87.7966 65.7292 9848.57 61.368 169.722 41.1401 9787.2 217.388 51.1064 925.031 61.0853 928.407 166.281 49.1828 6672.98 922.164 216.963 71.3641 23.8537 103.498 917.918 9782.55 61.6766 21.1719 26.7356 37.7949 19.3179 26.8011 318.24 8.33447 51.9196 23.8442 128.582
internal_count=110437 41840 35426 7607 68597 27819 3701 6414 1707 66890 2671 337 662 66553 3906 2229 442 348 66205 342 1045 218 65863 1030 273 6151 319 3834 757 277 27526 3807 899 301 128 426 6116 65843 263 97 140 186 86 118 2101 42 281 117 827
is_linear=0
shrinkage=0.1


Tree=6
num_leaves=50
num_cat=0
split_feature=11 23 25 16 53 19 24 18 7 13 53 11 53 22 22 3 40 47 16 6 11 24 22 9 40 26 2 42 39 48 8 48 16 41 52 8 3 43 47 48 53 3 53 52 3 22 2 8 47
split_gain=26600.2 4112.39 880.782 221.248 207.82 127.526 120.964 79.141 77.6177 73.5222 52.0074 42.4208 39.9141 36.7026 35.7629 28.8513 28.2935 33.6666 27.4809 32.5051 26.8924 93.5365 38.8603 67.634 37.3348 25.4178 27.8189 24.0979 24.6554 22.9565 22.1088 22.0409 15.3825 16.5259 19.3515 17.1123 15.8349 25.3728 14.7551 12.7195 15.7738 12.2427 11.7204 29.1048 59.0453 34.7994 31.1904 19.0159 14.7468
threshold=14942208.000000002 2.5000000000000004 425984.00000000006 4.5000000000000009 14.500000000000002 1.5000000000000002 304.00000000000006 5.5000000000000009 1.0000000180025095e-35 1536.0000000000002 14.500000000000002 1882849280.0000002 15.500000000000002 25445.500000000004 1.0000000180025095e-35 9.5000000000000018 15067.500000000002 3.3728492480400005 1.0000000180025095e-35 322304.00000000006 397901824.00000006 49.500000000000007 1.0000000180025095e-35 2816.0000000000005 76413.500000000015 53248.000000000007 258.50000000000006 519.50000000000011 30850.000000000004 5.0012291600350016 4985.5000000000009 3.4272928642650005 5.5000000000000009 1.5000000000000002 1.0000000180025095e-35 12744.500000000002 9.5000000000000018 2.5000000000000004 4.9693246166950011 5.0503157349100007 19.500000000000004 10.500000000000002 15.500000000000002 1.0000000180025095e-35 9.5000000000000018 62956.000000000007 288.50000000000006 68947.500000000015 1.1119744092250003
decision_type=2 2 2 2 2 2 2 2 2 2 2 2 2 2 2 2 2 2 2 2 2 2 2 2 2 2 2 2 2 2 2 2 2 2 2 2 2 2 2 2 2 2 2 2 2 2 2 2 2
left_child=1 2 3 -1 6 7 11 9 14 16 -7 38 -11 30 -3 29 17 -4 19 -15 21 24 23 -23 -6 27 -27 42 -29 -8 -14 -5 33 -24 35 -35 -36 -38 -2 40 -26 -17 -18 -44 45 -45 -46 -48 -47
right_child=4 8 5 31 20 10 15 -9 -10 12 -12 -13 13 18 -16 41 25 -19 -20 -21 -22 22 32 -25 39 26 -28 28 -30 -31 -32 -33 -34 34 36 -37 37 -39 -40 -41 -42 -43 43 44 46 48 47 -49 -50
leaf_value=-0.11691296330639003 -0.081829403276919066 0.037134867232950529 -0.099810151629902033 -0.056033190746380572 0.12809568096118362 -0.12314086654733186 0.1531169000129243 0.12583897301385394 -0.085822530612340311 -0.10128163213935598 0.16872591248706167 0.14561516705811575 0.13850234417471471 0.10163906032616499 0.15576930320863058 -0.098742608276441629 -0.11897894959850897 0.096155579808463759 -0.12095932383530723 -0.075740261469612005 0.15778605945917498 0.16074366967959369 0.15791756766867762 -0.14242851277039423 0.088976796438878528 0.16156123248865065 -0.1200152283508049 -0.10442668516677363 0.11708159342520959 0.01718109802898744 -0.10594240513531944 0.15680109448316712 0.15724535305898926 0.13115189705619532 0.14670355078209985 0.023950234563240819 0.11309239249342468 -0.10688793227706124 0.069240098600656899 -0.031153760446931373 -0.088992570720584946 0.1094909533203506 -0.11588317290054527 -0.12059993131412271 -0.10699057891592122 -0.033501981927888468 0.23645645328562592 -0.075561787702392552 0.14078676071776738
leaf_weight=38.54217255115509 66.70764833688736 26.494163706898689 25.179850652813911 5.0241329520940772 42.969960898160934 8.4108476042747515 89.39973971247673 13.575326114892958 14.151692613959311 113.53994201123714 22.270593121647835 10.727966532111166 4.0489584356546393 42.200747221708298 621.19251754879951 8.1616794764995557 9003.2357560396194 13.449387058615683 10.108572944998739 13.680049940943716 4990.6977663189173 18.10112738609314 197.47921703755856 12.398810416460039 26.10659995675087 6.8396048098802549 7.2047039866447449 11.689144268631937 8.8138706535100919 14.428320646286009 42.934393480420113 154.30413281917572 1231.487323641777 26.167635127902031 173.692078769207 34.551526606082916 29.005723059177399 6.4001785069704047 7.1591713726520529 36.504832625389099 6.1542008370161048 4.3167328238487235 1007.7147048413754 9.8512805700302106 182.91716922819614 6.373444244265559 4.3407117128372184 3.5512587875127792 20.372430577874184
leaf_count=259 402 130 158 22 179 57 377 60 89 775 94 45 23 188 2639 42 65684 57 60 79 21337 77 835 56 113 29 52 74 39 65 266 656 5260 109 726 142 121 26 34 157 27 19 7237 70 1295 40 21 23 112
internal_value=-0.00202738 -0.0960997 -0.110954 0.0980817 0.151028 -0.114863 0.0507834 -0.115455 0.145854 -0.115766 0.0887151 -0.0402009 -0.0594091 -0.0173263 0.150916 0.11696 -0.117004 -0.0315815 0.0307684 0.0582152 0.153975 0.143645 0.149375 0.0374984 0.0549709 -0.117325 0.017113 -0.117509 -0.00920433 0.134227 -0.0848765 0.15009 0.151384 0.135936 0.119848 0.07015 0.134279 0.0733275 -0.0671877 0.00927703 0.0550266 -0.0267071 -0.117726 -0.108591 -0.0762766 0.0400737 -0.0985926 0.0960533 0.0992544
internal_weight=18474.6 11442 10780.2 197.87 7032.62 10582.3 200.901 10551.6 661.838 10538 30.6814 84.5948 226.513 112.973 647.687 116.306 10311.5 38.6292 65.9894 55.8808 6831.72 1841.02 1729.28 30.4999 111.736 10272.9 14.0443 10258.9 20.503 103.828 46.9834 159.328 1698.78 467.296 269.817 60.7192 209.098 35.4059 73.8668 68.7656 32.2608 12.4784 10238.4 1235.12 227.406 36.5972 190.809 7.89197 26.7459
internal_count=110437 80288 77430 937 30149 76493 984 76342 2858 76282 151 481 1391 616 2769 503 74891 215 327 267 29165 7828 7352 133 476 74676 81 74595 113 442 289 678 7219 1959 1124 251 873 147 436 297 140 61 74482 8798 1561 222 1339 44 152
is_linear=0
shrinkage=0.1


Tree=7
num_leaves=50
num_cat=0
split_feature=11 50 31 53 22 53 19 24 18 22 13 48 53 53 45 16 36 25 22 53 49 40 10 42 11 24 8 17 42 31 2 22 2 6 46 8 40 47 49 33 49 43 11 22 47 10 33 43 53
split_gain=22955.5 2915.38 685.223 553.092 195.659 181.162 124.614 119.306 113.913 107.066 78.2914 68.3543 50.3573 42.4797 35.7198 82.0603 35.9456 26.6885 45.5111 25.0404 24.8913 24.06 23.6585 23.431 23.1825 42.2322 28.5517 28.5484 23.0364 21.6528 20.6807 20.6794 20.2173 20.0526 19.2267 18.9059 17.9312 16.8859 18.9503 16.7123 17.9016 16.6817 15.7709 60.5104 18.4767 14.5216 14.3986 13.7471 12.5666
threshold=14942208.000000002 185.00000000000003 2.5000000000000004 15.500000000000002 1.0000000180025095e-35 14.500000000000002 1.5000000000000002 49.500000000000007 5.5000000000000009 1.0000000180025095e-35 1536.0000000000002 4.9262675811900012 15.500000000000002 15.500000000000002 34.500000000000007 4.5000000000000009 17152.000000000004 1024288.0000000001 1.0000000180025095e-35 18.500000000000004 346.33873343150009 20482.000000000004 333824.00000000006 39.500000000000007 503742464.00000006 49.500000000000007 97764.000000000015 1.5000000000000002 206.50000000000003 4.5000000000000009 258.50000000000006 49180.500000000007 4934.5000000000009 468736.00000000006 5.283263174920001 4098.0000000000009 56570.000000000007 1.4891981135950003 596.70833333350004 0.061673836175800009 2237.0107142850006 2.5000000000000004 17301504.000000004 1.0000000180025095e-35 0.078367761211150008 4736.0000000000009 2.4314928974550005 6.5000000000000009 13.500000000000002
decision_type=2 2 2 2 2 2 2 2 2 2 2 2 2 2 2 2 2 2 2 2 2 2 2 2 2 2 2 2 2 2 2 2 2 2 2 2 2 2 2 2 2 2 2 2 2 2 2 2 2
left_child=1 2 7 21 -5 9 8 -1 10 -2 14 20 -8 -12 -4 16 19 42 36 22 29 -3 30 -15 25 26 -20 41 45 -11 46 -25 35 -21 -6 -9 -19 -28 -39 -33 -41 -27 43 -7 -45 -13 -16 -18 -23
right_child=5 3 6 4 34 17 12 32 -10 11 13 28 -14 23 15 -17 47 18 24 33 -22 48 -24 31 -26 27 37 -29 -30 -31 -32 39 -34 -35 -36 -37 -38 38 -40 40 -42 -43 -44 44 -46 -47 -48 -49 -50
leaf_value=-0.11730534155310467 -0.11700102473624119 0.039531229765236209 -0.11593987410150873 -0.069543049219350936 0.14412891913215592 -0.15586709356074402 -0.12094826983665621 0.19330094536948311 0.12269235980125348 0.17895289053879521 -0.095338759863195233 0.19371398374355178 0.15394503050748687 0.099080491805119186 -0.013258058443474278 0.12928457093098866 0.15381524792652598 0.13223545778184551 0.10488868776099976 -0.10042317721367063 0.14561366421356406 -0.115295076951052 -0.11368559213752366 -0.090595312599423161 0.14520128072679764 0.14377301222889657 -0.13341784727415337 -0.07603928442932284 -0.10985626234621806 -0.034978225429669309 -0.068891664920241583 -0.11347094315254072 0.15141025396272956 0.19511707897352532 -0.066824744673711217 -0.094194140099760792 -0.032787940420401007 -0.080925223795697263 0.083481430683661151 0.089095194067597139 -0.045141228366895866 0.082542096761934219 0.15018865795802805 -0.019219703744204487 0.13786195914258001 0.002990673845128162 0.29456669947337372 -0.054044268436450896 -0.039263581518554379
leaf_weight=21.00447803735733 32.970884993672371 13.682685211300848 9029.6001852303743 46.76564384996891 610.56334707140923 7.2930997014045706 9.1355832964181882 3.4805485457181913 20.485414206981659 6.7308018058538464 115.42031322419643 4.7715125232934978 24.631677702069283 17.391141757369041 2.8242599964141872 17.301963165402412 7.6921550482511503 9.2806409895420092 54.624384105205536 4.2091356664895994 91.838427245616913 106.04707707464695 279.19791731238365 32.666210666298866 925.79196324944496 345.87547752261162 8.3100793659687024 6.4592891931533805 17.92720539867878 15.924858435988424 13.672782257199286 8.8587276041507703 118.22683583199978 5.0506024658679962 4.3512542545795432 6.6723363548517227 22.664401046931744 10.675282597541811 20.424940675497055 25.928616777062416 16.105536505579948 51.062360689043999 4680.8485808074474 7.6357880830764762 387.27319732308388 24.44100247323513 3.2892887443304062 5.4263274818658829 27.343633756041527
leaf_count=152 213 65 71277 304 2713 33 66 16 91 34 834 20 108 85 21 90 37 39 231 30 404 805 2182 209 4101 1514 35 28 108 82 101 58 524 26 23 48 109 46 86 115 87 216 20985 32 1710 123 21 29 171
internal_value=-0.00208338 -0.0938222 -0.108899 0.0886517 0.12764 0.142307 -0.112193 0.103633 -0.112867 0.0472279 -0.11337 0.0807281 0.0795739 -0.0539003 -0.114744 -0.0828599 -0.0942816 0.145137 0.133197 -0.101181 0.122455 -0.0867555 -0.106197 -0.00652202 0.135846 0.118435 0.0580846 0.132503 -0.0206198 0.0285789 -0.000529154 -0.0285011 0.139781 0.0607754 0.142636 0.00436313 0.0151545 -0.0067878 0.0270482 0.0113549 0.037662 0.135896 0.148556 0.129554 0.134825 0.034143 0.152362 0.0678363 -0.0997095
internal_weight=17329.8 10597 9788.27 808.754 661.68 6732.82 9638.89 149.384 9605.12 194.605 9584.64 161.634 33.7673 216.371 9368.26 338.664 321.362 6538.22 1455.17 308.244 114.494 147.073 298.984 100.95 1423.22 497.432 94.0347 403.397 47.1397 22.6557 19.7863 83.5591 128.38 9.25974 614.915 10.1529 31.945 39.4103 31.1002 50.8929 42.0342 396.938 5083.05 402.202 394.909 29.2125 6.11355 13.1185 133.391
internal_count=110437 80288 76207 4081 3040 30149 75467 740 75293 984 75202 771 174 1388 73814 2537 2447 29165 6405 2381 520 1041 2325 554 6257 2156 398 1758 251 116 143 469 588 56 2736 64 148 167 132 260 202 1730 22760 1775 1742 143 42 66 976
is_linear=0
shrinkage=0.1


Tree=8
num_leaves=50
num_cat=0
split_feature=53 33 2 16 44 50 2 50 31 45 22 10 2 44 51 46 16 22 40 53 46 53 47 47 53 42 27 51 18 48 42 39 46 22 33 24 24 32 53 0 38 0 42 48 44 51 2 47 6
split_gain=18110.2 3250.22 555.316 730.28 504.44 398.537 193.971 181.771 116.648 81.7205 79.9068 74.7261 64.8979 61.405 61.1695 54.5182 54.361 52.3248 38.9655 55.9061 34.8565 30.5609 49.6497 30.0914 29.6985 26.719 25.6605 24.889 22.8591 20.7977 18.9271 27.4606 18.7847 17.5318 17.3291 15.4268 15.2231 14.8609 14.2754 13.1724 12.9332 12.7859 12.2702 12.1402 11.9199 11.7738 11.5971 14.1302 11.3364
threshold=15.500000000000002 1.0000000180025095e-35 288.50000000000006 4.5000000000000009 1.0000000180025095e-35 189.00000000000003 4934.5000000000009 76.500000000000014 2.5000000000000004 35.500000000000007 11856.500000000002 8432.0000000000018 8228.0000000000018 2.5000000000000004 2015.5000000000002 4.2132485288750017 4.5000000000000009 1.0000000180025095e-35 26365.000000000004 13.500000000000002 5.2362143993200005 12.500000000000002 3.2588866437000008 0.078367761211150008 14.500000000000002 587.50000000000011 1941504.0000000002 826.00000000000011 4.5000000000000009 3.6159898955350003 36.500000000000007 1958.0000000000002 3.6041042345350003 166364.00000000003 3.1160011190800003 49.500000000000007 32800.000000000007 4.0777945566800016 14.500000000000002 422.00000000000006 13360.500000000002 422.00000000000006 177.50000000000003 5.0896823003900016 45.500000000000007 1271.0000000000002 258.50000000000006 3.2588866437000008 15616.000000000002
decision_type=2 2 2 2 2 2 2 2 2 2 2 2 2 2 2 2 2 2 2 2 2 2 2 2 2 2 2 2 2 2 2 2 2 2 2 2 2 2 2 2 2 2 2 2 2 2 2 2 2
left_child=5 4 3 7 11 8 21 9 12 14 30 -2 -1 18 28 -8 35 -5 19 -10 37 -7 -23 -19 29 41 36 34 45 40 -9 -32 33 -11 42 -6 -25 -12 43 -16 -15 -20 -4 -17 -36 -3 -39 -48 -21
right_child=1 2 27 17 16 6 15 10 13 32 20 -13 -14 24 39 38 -18 23 25 48 -22 22 -24 26 -26 -27 -28 -29 -30 -31 31 -33 -34 -35 44 -37 -38 46 -40 -41 -42 -43 -44 -45 -46 -47 47 -49 -50
leaf_value=-0.10181641555045334 0.10980040494597743 -0.033449213748199084 0.12146133594984727 -0.13669746170838712 -0.062942058101930251 -0.10227512481757305 0.13400529873630318 -0.11484525921158036 -0.10106826710689631 -0.060697794663570295 0.14147733227180168 -0.11066065758167221 0.11689786895930254 -0.099902222697236309 -0.10058882396827795 0.0039534794335621256 0.13971531565508072 -0.072760503685026984 -0.11441623705781255 -0.0085733215473358989 -0.081400404005051052 -0.10942582036014277 0.11434566879643814 0.10879924777711834 0.10703963017170717 0.090298535640887134 -0.075539456919798853 0.14054842045329716 0.19373489799452687 -0.1069443275890702 0.13640983755406091 -0.08564199813266174 -0.055367620325234623 0.13195433651721789 -0.061587567038039963 0.077290540953143819 0.14378011846381719 0.1089768397654626 0.099088672557096913 0.093961206447883028 0.095660629468044808 0.02044674615239897 -0.017644432753443524 -0.13251528651855768 0.11227775079704064 0.1404552136901914 -0.038049827298338904 0.091667967619862969 0.16898613211971639
leaf_weight=22.346083551645279 15.695452034473417 20.712115556001667 71.898969724774361 7.262061432003974 20.050835199654102 101.74871745705605 97.495570883154869 25.752862490713596 34.677303560078144 5.6799699589610091 61.626501604914665 752.50124010443687 34.5315872579813 4.8451902866363552 267.59459157288074 22.93346244096756 101.83390365540981 7.0427022576332083 7661.9179554432631 5.0462849438190487 10.845490157604216 20.055673271417618 19.610650576651096 157.08989510685205 15.640835121273993 6.3886437043547621 5.7506695389747611 5750.9609239324927 7.9188476055860511 27.234740979969501 9.8156480491161364 12.87375535070896 10.197065003216265 28.056315056979656 11.336233109235765 12.88646115362644 597.93290373682976 45.464173972606659 10.589558482170103 3.5260493904352179 11.195537790656088 7.0363265424966803 6.9544128328561774 9.1073800027370435 6.0463052839040747 4.7942549958825103 15.635673858225344 18.139943391084671 12.509040758013724
leaf_count=177 75 138 324 35 123 813 447 182 256 37 278 6343 160 25 2128 115 480 30 65798 28 75 139 93 712 71 33 25 27079 36 195 47 91 60 140 49 61 2813 215 47 16 57 32 30 53 26 26 86 80 58
internal_value=-0.00211979 0.103949 0.126464 0.0679768 -0.0748501 -0.107523 0.00937501 -0.0203068 -0.111719 -0.0639297 0.0556432 -0.106156 0.0309695 -0.112761 -0.0823225 0.0927596 0.103596 0.130468 -0.113536 -0.0274576 0.0913468 -0.0732495 0.00120466 0.132994 -0.0110578 -0.114122 0.134899 0.139704 0.045317 -0.0537412 -0.0561736 0.0104197 0.0635691 0.0995187 0.0892695 -0.00807714 0.136502 0.104647 -0.00156918 -0.0980586 0.0365898 -0.114292 0.109193 -0.0348368 -0.00111062 -0.000761609 0.076003 0.031618 0.117947
internal_weight=16198.8 8073.88 7170.91 1323.71 902.968 8124.91 281.541 548.633 7843.37 348.479 200.154 768.197 56.8777 7786.49 304.546 140.126 134.771 775.078 7727.58 52.2326 151.712 141.415 39.6663 767.816 58.9163 7675.34 760.773 5847.2 33.4252 43.2755 48.4423 22.6894 43.9334 33.7363 96.2359 32.9373 755.023 140.866 42.6304 271.121 16.0407 7668.95 78.8534 32.0408 17.3825 25.5064 79.2398 33.7756 17.5553
internal_count=110437 41840 34758 7250 7082 68597 1707 3635 66890 2581 1054 6418 337 66553 2344 662 664 3615 66205 342 734 1045 232 3580 348 65863 3550 27508 200 277 320 138 237 177 429 184 3525 659 215 2144 82 65830 354 168 75 164 381 166 86
is_linear=0
shrinkage=0.1


Tree=9
num_leaves=50
num_cat=0
split_feature=53 33 25 23 25 43 22 44 24 40 40 22 33 20 44 32 22 33 41 53 39 22 0 20 46 6 22 17 24 51 33 53 6 53 26 31 43 49 36 46 53 44 53 32 42 24 40 44 53
split_gain=15864.7 2796.41 486.345 397.121 342.241 363.134 259.504 249.897 237.068 111.907 65.997 63.0045 57.2669 54.7866 52.9156 52.126 51.9876 45.4373 41.3822 38.9639 40.2383 35.1381 31.8025 26.9493 26.7565 25.5171 25.0292 24.9879 20.9592 19.69 19.3636 19.5382 19.2547 18.1247 17.8856 16.9856 15.5666 15.1795 14.7177 14.1502 14.1019 14.0813 13.8574 24.1797 13.1956 14.9422 12.9967 12.8872 11.5529
threshold=15.500000000000002 1.0000000180025095e-35 1024288.0000000001 2.5000000000000004 1024288.0000000001 1.0000000180025095e-35 1.0000000180025095e-35 1.5000000000000002 32992.000000000007 280490.00000000006 27414.500000000004 11856.500000000002 0.016164323890600005 178176.00000000003 1.0000000180025095e-35 5.4425293808400008 29051.500000000004 3.2407227889550003 1.0000000180025095e-35 14.500000000000002 993.00000000000011 1.0000000180025095e-35 422.00000000000006 71680.000000000015 4.9717378141050004 20224.000000000004 1.0000000180025095e-35 1.5000000000000002 49.500000000000007 805.00000000000011 0.021007540002650003 19.500000000000004 1216.0000000000002 12.500000000000002 6048.0000000000009 8.5000000000000018 12.500000000000002 731.17357910900012 6400.0000000000009 4.2665292912050008 14.500000000000002 2.5000000000000004 17.500000000000004 5.5083462543350015 519.50000000000011 33072.000000000007 298079.00000000006 352.00000000000006 17.500000000000004
decision_type=2 2 2 2 2 2 2 2 2 2 2 2 2 2 2 2 2 2 2 2 2 2 2 2 2 2 2 2 2 2 2 2 2 2 2 2 2 2 2 2 2 2 2 2 2 2 2 2 2
left_child=3 2 26 7 -3 6 23 10 11 13 16 -7 -5 -10 18 27 -1 -17 -4 20 33 32 44 -6 29 40 -2 -8 46 -13 -31 42 -14 -9 -15 -16 -11 -30 -24 -23 -18 -25 43 -32 -12 -46 -19 -22 -26
right_child=1 4 14 12 5 8 15 19 9 36 22 24 21 34 35 17 25 28 -20 -21 47 39 38 41 48 -27 -28 -29 37 30 31 -33 -34 -35 -36 -37 -38 -39 -40 -41 -42 -43 -44 -45 45 -47 -48 -49 -50
leaf_value=-0.10089465549696344 -0.13205385433990902 0.13537375945011634 0.13184715051676951 -0.064887938848669752 0.061790954215470997 -0.048777386167579213 0.1300038069704858 -0.012524636688385118 0.11912053349082158 0.12684909035164849 -0.11252957944311402 -0.0054997040574534329 0.12303088136151188 -0.11072343384728425 0.052031290327669948 -0.092146934806616385 -0.04886152263636958 0.12825282668583057 -0.11092086989655836 0.11269775418411115 -0.091171973039605197 0.13838153716320492 0.16092988855298809 -0.094090407940131626 -0.11399399709901581 0.14301031768306707 0.13233813138635445 -0.080981369138481918 -0.045878200570714553 -0.14159929269043983 0.10027380796385724 0.0016028777198865451 -0.095417039335857934 0.13116291704300578 0.16278294652753955 -0.13302958311060581 -0.0033338185039240281 0.13145237816416824 -0.079324097491366055 0.013742135647010219 0.15790864880953071 0.049716755481278352 0.13400535504887678 -0.043780961510346383 -0.096637410669755563 0.18515054984451113 -0.10982656510861839 0.11431103416036313 0.10384409140628631
leaf_weight=42.922154255211353 3.7057703882455817 4754.6331817880273 7.0939765572547904 27.210640996694565 16.787189014256001 39.129935890436172 1266.7713899612427 15.250139810144899 11.422490999102591 29.456216789782047 7122.9888952374458 19.517513364553452 5.8803469538688686 172.34895806759596 28.010486595332623 18.309147737920284 19.473105520009998 3.2654520198702794 687.30527180433273 41.860019594430923 37.866153605282307 78.235064908862114 6.1701085418462736 64.449047408998013 9.309007987380026 18.602180637419224 105.96879810094833 5.638383448123931 5.3820723742246619 3.3242728784680358 133.80023616552353 18.414975985884666 12.857645735144613 20.687598571181297 2.424570992588996 6.0267839208245269 13.347053065896032 46.816687017679214 4.3455138951539993 10.308818668127058 3.9710158705711356 7.6132965683937064 115.86314256489277 12.763377346098421 4.6440768837928763 3.163739025592804 7.6989051699638367 3.3197368755936614 3.2967748343944541
leaf_count=347 24 23796 35 179 93 256 6226 90 56 148 66544 84 26 1559 138 140 124 16 6311 195 267 373 28 484 70 92 528 26 24 25 629 94 84 98 11 46 73 230 20 43 18 34 555 66 37 14 46 18 17
internal_value=-0.00214594 0.0994092 -0.0729153 -0.105604 0.120706 0.0863015 0.113239 -0.108722 0.0198016 -0.0595449 -0.111088 0.0709251 0.0646797 -0.0930618 -0.102474 0.124104 -0.0234762 0.0465603 -0.108441 0.0350227 -0.00713667 0.0975428 -0.112131 -0.0523158 0.0857341 0.0555548 0.123405 0.129069 0.0867675 0.0916599 0.0983332 0.101173 -0.0268638 0.0701893 -0.106929 0.0192636 0.086255 0.113168 0.0616465 0.12387 -0.0138383 -0.0788974 0.10816 0.0877289 -0.112387 0.0175435 -0.0389207 -0.0746093 -0.0570231
internal_weight=15099.7 7619.89 838.111 7479.76 6781.78 2027.15 1442.73 7345.26 584.419 228.999 7226.28 355.419 134.493 186.196 728.437 1353.88 84.9685 81.4723 694.399 118.984 77.1236 107.282 7141.31 88.8495 316.289 42.0463 109.675 1272.41 63.1631 303.684 284.166 280.842 18.738 35.9377 174.774 34.0373 42.8033 52.1988 10.5156 88.5439 23.4441 72.0623 262.427 146.564 7130.8 7.80782 10.9644 41.1859 12.6058
internal_count=110437 41840 7082 68597 34758 10962 7319 67892 3643 1847 67224 1796 705 1626 6530 6708 581 456 6346 668 473 526 66643 611 1540 234 552 6252 316 1453 1369 1344 110 188 1570 184 221 254 48 416 142 518 1250 695 66595 51 62 285 87
is_linear=0
shrinkage=0.1


Tree=10
num_leaves=50
num_cat=0
split_feature=11 23 14 53 53 34 22 22 34 52 41 7 52 34 18 14 22 11 31 22 36 14 11 34 22 39 49 48 22 3 24 4 31 49 5 3 48 33 52 8 8 10 33 8 48 34 3 22 48
split_gain=15255.6 2538.11 616.577 122.683 87.3263 145.341 75.3108 67.9401 57.7659 48.2211 43.7308 41.1268 39.6862 38.4269 32.6604 24.397 24.5023 23.4432 24.9501 22.9527 38.516 22.3846 60.0485 39.1222 21.1166 19.9669 19.4461 18.8292 25.4748 20.1464 17.6408 17.5822 15.4204 15.4159 14.9492 14.3984 15.5163 14.543 13.4898 30.0338 12.9053 12.0982 12.051 11.4476 10.662 9.91038 9.77004 9.51894 8.96594
threshold=14942208.000000002 2.5000000000000004 5.5000000000000009 14.500000000000002 15.500000000000002 6.5543121670600009 1.0000000180025095e-35 434525.00000000006 6.8047922194800003 1.0000000180025095e-35 12.500000000000002 1.0000000180025095e-35 1.0000000180025095e-35 7.6383585802200011 4.5000000000000009 5.5000000000000009 358202.50000000006 325320704.00000006 4.5000000000000009 11856.500000000002 503.00000000000006 5.5000000000000009 397901824.00000006 6.2773290001700017 1.0000000180025095e-35 2305.0000000000005 2237.0107142850006 7.9603978010800009 160171.50000000003 11.500000000000002 49.500000000000007 20.500000000000004 4.5000000000000009 2237.0107142850006 4672.0000000000009 9.5000000000000018 4.7958535713950008 4.1837664281850007 1.0000000180025095e-35 12744.500000000002 4576.5000000000009 313344.00000000006 3.8152958087350002 118907.50000000001 5.0755570394200005 6.2074214633400011 6.5000000000000009 1859162.5000000002 4.994001431430001
decision_type=2 2 2 2 2 2 2 2 2 2 2 2 2 2 2 2 2 2 2 2 2 2 2 2 2 2 2 2 2 2 2 2 2 2 2 2 2 2 2 2 2 2 2 2 2 2 2 2 2
left_child=1 2 4 6 -1 12 -2 27 9 -9 17 24 19 21 -4 16 -15 18 -8 40 -21 22 23 -5 46 -22 -14 29 -29 -7 42 -19 -18 -11 -10 38 -37 -38 39 -32 -6 45 43 -25 -45 -20 -3 -13 -48
right_child=3 11 14 13 5 7 10 8 34 33 -12 47 26 15 -16 -17 32 31 41 20 25 -23 -24 30 -26 -27 -28 28 -30 -31 35 -33 -34 -35 -36 36 37 -39 -40 -41 -42 -43 -44 44 -46 -47 48 -49 -50
leaf_value=-0.11088759211141611 -0.110069440635942 -0.079281686878519275 -0.11446360651360482 0.11438185093879721 0.10495599400793112 -0.10950564110604775 0.12363261657042364 -0.08718199426089851 0.13036976224406535 -0.033414382886503773 -0.096029648077921845 -0.11980447481995792 0.14658309264066541 -0.13837881013492323 0.12204694149897273 0.11843382212138183 0.085573057897105287 0.12927550537357368 0.032423972521939945 -0.097754878199455386 0.11524939592322213 0.13234639197198336 0.12924516841905778 0.085364939723836283 0.12900376859950222 -0.022351195717850898 0.0064565245706256144 -0.082650323357021327 0.15878361816182202 0.15436299755667265 0.12536511308664086 -0.059439684714605881 -0.099461229801903181 0.14517297065872087 -0.092569510814834666 0.12587876208219256 -0.086218732466245063 0.099422204881242426 0.10936734968059698 -0.047545830728706731 -0.09306941657329626 0.1268797127445058 -0.065907466607990753 0.059015345854999401 -0.078471292927249692 -0.10682289002320196 0.10892203788770219 0.09743671137049828 -0.050403898491755285
leaf_weight=6582.5744409039617 27.687106072902679 5.7986634224653271 6.1218452751636496 282.26531107723713 3.5805298164486876 777.23770464211702 16.878408811986446 16.986426189541817 3.1352915167808524 5.7411613315343848 14.325309865176676 8.5901317968964559 25.883611217141151 9.8679968565702421 126.26457303762436 29.557268396019936 21.040512785315517 82.097066596150398 7.7182662039995256 20.639135390520096 29.822252482175827 3467.081865131855 1480.0268360823393 24.349634200334549 507.72873689234257 16.314726516604424 16.041236191987991 15.224832348525526 6.1299380064010611 2.9042972847819319 20.465176701545715 5.2528322339057913 5.7306210100650778 30.575255051255226 73.948196053504944 8.5243300944566744 15.055007442831995 5.8634656220674506 97.20247358083725 19.729753613471985 40.695166923105717 4.0941434726119033 14.722531273961065 10.704503610730173 11.923102483153341 15.131426669657229 14.147486329078676 2.6359139233827582 4.7072036415338507
leaf_count=66980 213 34 44 1428 18 7634 85 150 14 32 106 69 115 53 655 150 95 410 37 191 142 18548 7800 108 2639 91 80 137 34 16 103 27 25 156 643 42 69 27 468 87 298 21 64 47 51 85 67 20 29
internal_value=-0.00216456 -0.0882999 -0.102861 0.123977 -0.106555 -0.080267 0.0410996 -0.095097 -0.0281521 0.0518913 0.069866 0.120621 0.0100719 0.126575 0.11111 0.0508424 -0.00368446 0.0879834 0.0282975 -0.0212235 0.0157956 0.127494 0.119042 0.0894797 0.124615 0.0665918 0.092968 -0.105987 -0.0133461 -0.108523 0.0587236 0.117927 0.0459647 0.116941 -0.0835017 0.075619 0.0121581 -0.0341834 0.0892181 0.0404915 -0.0770553 -0.0314232 0.0130371 0.0377782 -0.0134301 -0.0597875 0.034234 -0.0687955 0.0691452
internal_weight=14040.7 8343.43 7799.82 5697.29 7667.43 1084.86 173.185 931.883 130.386 53.3028 145.497 543.608 152.977 5524.11 132.386 66.1964 36.6391 131.172 43.8222 111.052 66.7761 5457.91 1990.83 510.805 532.382 46.137 41.9248 801.497 21.3548 780.142 228.54 87.3499 26.7711 36.3164 77.0835 166.84 29.4428 20.9185 137.397 40.1949 44.2757 26.9438 61.6998 46.9772 22.6276 22.8497 24.6534 11.226 18.8547
internal_count=110437 80288 77430 30149 76731 9751 984 8816 995 338 771 2858 935 29165 699 323 173 665 228 740 424 28842 10294 2494 2769 233 195 7821 171 7650 1066 437 120 188 657 796 138 96 658 190 316 143 270 206 98 122 130 89 96
is_linear=0
shrinkage=0.1


Tree=11
num_leaves=50
num_cat=0
split_feature=11 23 14 53 53 34 22 22 34 52 48 34 4 52 18 25 11 43 23 22 22 36 17 47 48 22 39 4 49 41 45 52 34 38 34 22 5 31 38 47 22 11 22 52 8 16 44 8 10
split_gain=13399.2 2247.66 547.581 111.624 85.7574 132.347 64.7102 63.0945 49.9002 40.5171 37.7742 35.5878 34.998 32.4543 28.2471 25.8164 28.6951 38.0031 21.8459 19.9307 19.7169 32.7568 19.3823 18.3433 17.7524 20.7161 16.5189 16.4396 15.923 15.8331 14.3636 15.6119 13.5496 15.1933 13.5149 12.8384 12.8364 12.53 12.1197 11.9435 11.912 11.5991 38.3266 19.0297 24.269 11.5969 13.0172 10.9909 9.93926
threshold=14942208.000000002 2.5000000000000004 5.5000000000000009 14.500000000000002 15.500000000000002 6.5543121670600009 1.0000000180025095e-35 434525.00000000006 6.8047922194800003 1.0000000180025095e-35 4.9262675811900012 7.6383585802200011 14.500000000000002 1.0000000180025095e-35 4.5000000000000009 1024288.0000000001 397901824.00000006 2.5000000000000004 2.5000000000000004 1.0000000180025095e-35 11856.500000000002 503.00000000000006 1.5000000000000002 0.99978987264050012 7.9603978010800009 160171.50000000003 2305.0000000000005 20.500000000000004 2237.0107142850006 7.5000000000000009 180.50000000000003 1.0000000180025095e-35 6.6168024999900004 200185.33333350005 6.728314499385001 342843.00000000006 4672.0000000000009 5.5000000000000009 24186.312500000004 1.9000908063850002 202167.50000000003 17301504.000000004 1.0000000180025095e-35 1.0000000180025095e-35 44167.500000000007 4.5000000000000009 57.500000000000007 4576.5000000000009 4736.0000000000009
decision_type=2 2 2 2 2 2 2 2 2 2 2 2 2 2 2 2 2 2 2 2 2 2 2 2 2 2 2 2 2 2 2 2 2 2 2 2 2 2 2 2 2 2 2 2 2 2 2 2 2
left_child=1 2 4 6 30 13 -2 24 9 -9 27 15 19 20 -4 41 17 22 35 -3 47 -22 32 -11 -7 -26 -23 34 -15 48 -1 -32 -17 37 -8 -13 -10 40 -19 -30 -34 42 -5 44 -44 46 -40 -6 -12
right_child=3 12 14 11 5 7 10 8 36 23 29 18 -14 28 -16 16 -18 38 -20 -21 21 26 -24 -25 25 -27 -28 -29 39 -31 31 -33 33 -35 -36 -37 -38 -39 45 -41 -42 -43 43 -45 -46 -47 -48 -49 -50
leaf_value=-0.10957311753660415 -0.10717067549424303 0.031026508109927593 -0.11098832747640333 -0.15552414035171991 0.090725780500206299 -0.10667887986640545 0.12081971885772769 -0.083620000828867502 0.11834474861442588 -0.057735434013201095 0.16604887311324101 -0.093280709482841673 -0.068027948204978858 0.13265252515608966 0.11681568389332292 0.11453540135278009 0.12140913290894191 0.090200059568160768 0.11672137759058759 0.12394205150305765 -0.094953865868564996 0.10555412786917184 -0.068747683637368814 0.13942454010236632 -0.079362498031086012 0.13761904880031814 -0.020275873395610041 -0.062674748056987847 0.10821896102391707 -0.086435206003408149 -0.1144157936468163 0.22153364216959048 -0.054194788606278244 0.14240200148088891 -0.029139956984217782 0.036049143142452576 -0.089341054930285532 -0.11482783149418747 -0.047265163333552046 -0.066758208729379598 0.09739778900002935 0.12846872547843319 0.083146300080981603 0.12430181715462346 -0.12685570168301527 0.1002126569523033 0.085955719269201369 -0.089323826263236164 0.0068859167495183629
leaf_weight=6026.1520641744137 25.695259645581245 24.259447120130062 5.7038350999355307 5.4102772474288932 3.7197631895542136 717.53098633885384 85.056562684476376 15.991196408867834 3.1097102612256995 5.6075209379196158 4.8614528626203564 10.883207716047762 10.159375958144663 25.747287079691887 119.09931570291519 281.82282607257366 762.62968564033508 20.627275958657265 26.658313222229481 477.19934831559658 19.197925321757793 29.331131532788277 6.4304671734571448 29.777660988271236 14.317546129226686 6.3523121550679198 16.192852638661861 5.850875958800315 6.6644598245620754 17.399675630033016 2.7990169301629058 2.7348044067621231 7.7632724344730439 13.392932713031767 6.4667854383587828 26.043277904391289 69.205621063709259 6.014568328857421 36.603881791234016 9.4073411226272565 15.59914095699787 3630.4785546660423 45.285921886563301 252.37694771587849 6.2642956972122184 9.6197392195463163 9.1725087612867338 38.287393763661385 20.334820084273815
leaf_count=66940 213 131 44 24 18 7650 451 150 14 32 21 61 86 115 655 1497 4219 98 143 2641 191 142 29 156 137 34 91 32 32 125 27 13 37 67 37 119 643 28 160 48 77 20851 230 1410 28 47 40 298 105
internal_value=-0.00217548 -0.0867733 -0.101229 0.119499 -0.104909 -0.0779468 0.0386979 -0.0929716 -0.026874 0.0484814 0.065476 0.122087 0.115724 0.00922885 0.106404 0.123012 0.109966 0.0885272 0.0477353 0.119447 -0.0200294 0.0145975 0.10317 0.10818 -0.104047 -0.0126792 0.0607965 0.0998351 0.0839006 -0.0130689 -0.109425 0.0516098 0.106576 0.05413 0.110224 -0.00206777 -0.0804101 0.0138868 0.0247679 0.00579921 0.0470239 0.126885 0.108297 0.112993 0.0576272 0.000403652 -0.0205708 -0.0733803 0.0375953
internal_weight=13017.3 7678.55 7166.93 5338.74 7042.13 1010.44 165.665 861.893 123.692 51.3764 139.97 5173.08 511.618 148.548 124.803 5109.49 1169.68 407.047 63.5848 501.459 106.729 64.7219 331.023 35.3852 738.201 20.6699 45.524 97.3742 41.8191 42.5959 6031.69 5.53382 324.593 42.7699 91.5233 36.9265 72.3153 29.377 76.0234 16.0718 23.3624 3939.82 309.337 303.927 51.5502 55.3961 45.7764 42.0072 25.1963
internal_count=110437 80288 77430 30149 76731 9751 984 8816 995 338 771 29165 2858 935 699 28842 6299 2080 323 2772 740 424 1735 188 7821 171 233 520 195 251 66980 40 1706 209 488 180 657 142 345 80 114 22543 1692 1668 258 247 200 316 126
is_linear=0
shrinkage=0.1


Tree=12
num_leaves=50
num_cat=0
split_feature=11 23 18 53 34 16 53 50 22 45 53 34 41 36 51 16 11 41 22 4 11 48 31 31 31 23 36 3 43 46 46 43 41 44 4 45 9 43 41 8 20 47 50 11 22 3 6 6 40
split_gain=11797.9 1993.63 371.326 121.021 171.085 109.535 102.492 58.5564 55.6576 46.8686 35.0003 34.0922 32.6871 27.1117 26.1941 24.4674 54.7815 34.3382 29.1806 20.4407 20.1909 20.1494 19.9807 19.9767 19.29 19.1281 18.9006 15.6487 15.3989 15.3334 14.6497 14.509 14.3436 14.0283 13.2606 12.9608 12.6513 12.2367 12.1417 12.1395 12.0858 12.6126 13.866 10.7691 10.6277 9.95665 9.81228 9.79112 9.69579
threshold=14942208.000000002 2.5000000000000004 5.5000000000000009 15.500000000000002 6.7901269840250009 4.5000000000000009 14.500000000000002 48.500000000000007 1.0000000180025095e-35 35.500000000000007 15.500000000000002 7.6383585802200011 12.500000000000002 93.000000000000014 2218.0000000000005 5.5000000000000009 503742464.00000006 1.5000000000000002 1.0000000180025095e-35 1.0000000180025095e-35 325320704.00000006 4.9372113924350005 7.5000000000000009 6.5000000000000009 4.5000000000000009 2.5000000000000004 3580.5000000000005 7.5000000000000009 12.500000000000002 4.5836862542850012 3.5707791932900004 2.5000000000000004 8.5000000000000018 3.5000000000000004 20.500000000000004 180.50000000000003 2816.0000000000005 8.5000000000000018 9.5000000000000018 21886.500000000004 2455552.0000000005 2.1585873638100002 340.50000000000006 325320704.00000006 342843.00000000006 6.5000000000000009 176384.00000000003 132864.00000000003 36636.000000000007
decision_type=2 2 2 2 2 2 2 2 2 2 2 2 2 2 2 2 2 2 2 2 2 2 2 2 2 2 2 2 2 2 2 2 2 2 2 2 2 2 2 2 2 2 2 2 2 2 2 2 2
left_child=1 2 3 35 5 7 8 9 -2 14 21 15 20 -7 27 16 17 33 -19 31 24 22 -3 28 -10 44 39 -5 38 30 -28 43 47 -8 -22 48 -6 -32 -11 46 41 -34 -43 -20 -13 -12 -9 -33 -1
right_child=6 10 -4 4 36 13 11 26 12 23 45 25 -14 -15 -16 -17 -18 18 19 -21 34 -23 -24 -25 -26 -27 29 -29 -30 -31 37 32 40 -35 -36 -37 -38 -39 -40 -41 -42 42 -44 -45 -46 -47 -48 -49 -50
leaf_value=-0.07093646602067652 -0.10444117271837437 0.088438804819946343 0.11225218612578021 -0.04945842614933401 0.11867379378889065 -0.076586804133566208 0.12027128477399551 0.0046319338162617201 0.108678018392042 0.037399735044997072 0.023552295331738943 -0.086188183555485173 -0.090324531378702125 0.12176686782515807 -0.10189888794344866 0.12425992136060944 0.12089180609574124 -0.054207317844683911 0.079551480560930338 0.10660556874074974 0.11763527997721789 -0.096709475600906925 -0.12166215709358141 -0.10146746679910371 -0.030755945909066079 0.111292332841698 -0.028815835947729435 0.12468717029019334 -0.030137917163315476 -0.067347632003835547 0.14581223617800521 0.082243540785628927 -0.12002900053807238 -0.019170710419296431 -0.050093050495915774 0.048358881948331475 -0.10511587177861442 -0.019250328899018575 0.20718751134442048 -0.068546143017339745 0.12841458178809095 0.10209886198388751 -0.071818646127351116 -0.053618028954127574 0.032603561774259639 0.12309275989113573 0.19389727106456855 -0.073254111868716054 -0.10873737377781473
leaf_weight=68.710077457129955 23.826622813940048 38.149524331092834 81.614065267145634 14.403711855411531 2.5371473282575598 7.810036562383174 174.52712300419807 17.222209885716442 15.877889901399611 7.258086681365973 10.296542964875696 10.615319043397902 12.852094307541845 58.552423320710659 172.95914686471224 3141.3747220933437 1153.8002534806728 21.07603394985199 100.84023478627205 90.790867298841476 74.548659637570381 9.5879199728369695 5.1357809305191031 7.6982201486825934 26.450376629829407 25.237103551626205 8.3261278942227346 8.0404897928237897 8.2469391822814924 7.2850693166255942 28.09543538838625 29.026122018694878 14.443735852837561 7.5257954746484748 5.0317374020814887 5.2883685678243628 581.39244329184294 5.3458075299859038 10.034907922148703 25.614317156374454 4.2944413572549811 8.1689405292272586 10.446595087647436 6.4616274088621131 25.92257584631443 417.63757379353046 3.2573054581880561 4.7058396488428107 5449.4295292273164
leaf_count=679 213 218 475 114 11 78 1016 98 85 35 55 61 106 329 1892 19347 6976 97 514 499 410 52 44 79 143 143 49 49 50 45 146 139 62 36 27 40 6669 31 46 211 20 38 47 31 119 2489 18 20 66286
internal_value=-0.00217991 -0.0853573 -0.0997229 -0.102385 -0.0698869 -0.0186157 0.115552 -0.0426035 0.0364482 -0.0700367 0.111214 0.118149 0.0613584 0.0984231 -0.0887098 0.119106 0.109149 0.0804609 0.0591065 0.0679788 0.0773495 0.0344565 0.0635104 0.0397403 0.0215476 0.0443375 0.0233197 0.0129281 0.082303 0.0665246 0.0898746 0.0483195 0.0132807 0.114507 0.10703 -0.108117 -0.104144 0.119426 0.135925 -0.0226583 -0.0294059 -0.049907 0.0045005 0.0715321 -0.00190889 0.120698 0.0347349 0.0605506 -0.108267
internal_weight=12047.8 7059.93 6579.12 6497.51 974.08 390.15 4987.84 323.788 158.587 228.642 480.807 4829.26 134.761 66.3625 195.403 4767.48 1626.11 472.307 290.254 269.178 121.909 52.8732 43.2853 33.2382 42.3283 61.775 95.1463 22.4442 25.5399 49.0524 41.7674 178.388 71.0857 182.053 79.5804 5523.43 583.93 33.4412 17.293 46.0938 37.3537 33.0593 18.6155 107.302 36.5379 427.934 20.4795 33.732 5518.14
internal_count=110437 80288 77430 76955 9950 3270 30149 2863 984 2265 2858 29165 771 407 2055 28842 9495 2519 1467 1370 665 314 262 210 228 323 598 163 131 271 226 871 326 1052 437 67005 6680 177 81 327 167 147 85 545 180 2544 116 159 66965
is_linear=0
shrinkage=0.1


Tree=13
num_leaves=50
num_cat=0
split_feature=11 23 14 51 13 15 23 34 34 50 7 46 34 43 25 34 11 52 42 34 34 51 48 24 34 14 14 17 11 8 47 6 35 34 8 11 52 8 17 43 48 48 46 43 51 46 34 17 34
split_gain=10409.6 1770.81 433.992 86.0722 70.6472 48.2151 40.9721 37.9255 37.3441 35.0345 29.9208 29.4094 28.3521 25.2846 25.183 27.089 43.8712 25.0511 23.0266 21.757 21.7201 40.5874 25.0437 23.9302 21.2132 20.1084 19.9171 18.5985 18.0421 16.7352 15.7655 37.749 13.5185 18.5158 13.8115 13.3644 29.9755 22.3331 12.876 12.6807 12.6272 14.4679 14.1664 12.3305 12.3199 15.5572 11.9689 11.646 11.6008
threshold=14942208.000000002 2.5000000000000004 5.5000000000000009 826.00000000000011 1536.0000000000002 1.5000000000000002 1.5000000000000002 7.7462741893800002 6.2865617164300014 52.500000000000007 1.0000000180025095e-35 4.2437884331400015 6.6448527037100007 12.500000000000002 1024288.0000000001 6.4048262458150012 732430336.00000012 1.0000000180025095e-35 172.50000000000003 4.7589161681900007 6.6448527037100007 81683.000000000015 5.5423484729500005 32992.000000000007 6.945895117840001 5.5000000000000009 5.5000000000000009 1.0000000180025095e-35 732430336.00000012 87815.000000000015 1.8389501623100004 137984.00000000003 120981.33333350001 6.8913470079550008 298471.00000000006 17301504.000000004 1.0000000180025095e-35 44167.500000000007 1.5000000000000002 20.500000000000004 3.2985810109950005 6.0603036193450004 3.6719905195050004 13.500000000000002 713.50000000000011 3.1652392569300001 7.4016851266250008 1.0000000180025095e-35 6.6168024999900004
decision_type=2 2 2 2 2 2 2 2 2 2 2 2 2 2 2 2 2 2 2 2 2 2 2 2 2 2 2 2 2 2 2 2 2 2 2 2 2 2 2 2 2 2 2 2 2 2 2 2 2
left_child=1 2 4 9 5 6 -1 14 17 27 44 46 13 40 35 38 25 19 -10 -8 21 22 30 43 -4 32 -9 -2 39 -19 31 -20 33 34 -17 36 37 48 -16 -13 -6 42 -42 -23 45 -3 -11 -26 -5
right_child=3 10 24 7 12 -7 8 26 18 11 -12 28 -14 -15 15 16 -18 29 20 -21 -22 23 -24 -25 47 -27 -28 -29 -30 -31 -32 -33 -34 -35 -36 -37 -38 -39 -40 -41 41 -43 -44 -45 -46 -47 -48 -49 -50
leaf_value=0.087197430939519524 -0.054350329997506608 0.10363881718054704 0.11208376041348998 0.075265450072073636 -0.097016034331068007 0.10751679339318845 0.12752551386290123 -0.028512525847173228 -0.10721968771426707 0.097505442485309596 -0.062802393959349709 -0.061922843985438014 -0.087604528551561589 -0.07547444801199088 0.11396750286482976 0.026329786133579558 0.10700120657094481 0.1243079299670594 0.37069941366641734 -0.079219179022998409 -0.096924833281572531 0.12094112642822914 -0.10375288238282335 0.230546850031071 -0.13493681989397877 0.12367307740879879 0.10364949311229343 0.18732752055644439 0.14939854227063123 -0.089622812626958107 -0.092553648169989733 -0.024649815544221673 0.068940113294937919 -0.12251867255215501 -0.15098029066445356 0.12194158619624894 0.11485704343954153 -0.12095645053292617 -0.07341994306362877 0.10717283186095855 0.024853982300052077 -0.045456917918529696 0.13616594407897192 -0.11689960502809636 0.11620225363694554 -0.03160432555030928 -0.077734971140736714 0.085016330170258725 -0.10430005364488262
leaf_weight=11.156515732407568 37.122849114239216 24.225527465343475 100.33030819892883 39.352722451090813 6.998996138572692 10.771266199648379 5.3740010485053054 27.759507082402706 5350.1045118644834 128.73382338136435 10.119640029966829 28.096811436116695 70.549229256808758 34.015721134841442 687.17437388002872 52.079902954399586 188.82489629089832 12.365723140537741 3.6483465731143969 96.364758901298046 176.04375381022692 3.984805993735792 52.016653180122375 7.9088884741067877 5.6763930171728116 18.822958245873451 19.352196410298347 3.4829859584569922 6.290671855211257 5.1919846758246413 6.0611148402094832 7.1450909823179245 28.40462626516819 12.620189897716044 4.7978620007634154 3118.7674202024937 221.27240151166916 8.218690097331999 3.686589613556861 5.2660627216100684 27.470004424452782 13.739167690277098 19.585041098296642 4.8120404034852982 403.09938401728868 13.107493199408053 4.0191835388541213 4.1797572299838066 3.9598926007747641
leaf_count=67 283 134 632 218 80 71 42 151 70818 737 89 152 738 308 4342 265 1155 59 31 1003 2183 23 633 41 44 113 115 18 31 59 61 61 144 66 23 20798 1417 37 19 24 186 100 111 56 2562 73 22 23 19
internal_value=-0.00218093 -0.0840341 -0.0983103 0.112038 -0.101967 -0.103857 -0.104254 0.115021 -0.104626 0.0499454 0.107206 0.0696272 -0.0388827 -0.00512056 0.115979 0.102002 0.0772091 -0.049262 -0.105803 -0.0682986 -0.0768356 -0.0355092 -0.0694273 0.104322 0.0983314 0.0290148 0.025776 -0.0336203 -0.00594243 0.0610465 0.0365086 0.108984 0.0108156 -0.0129405 0.011373 0.120085 0.0988604 0.0301716 0.112968 -0.0352324 0.03018 0.0448236 0.0711838 -0.00916223 0.111112 0.0561554 0.0921999 -0.04166 0.0588485
internal_weight=11134.2 6486.05 6035.49 4648.11 5925.31 5752.95 5742.18 4435.09 5731.02 213.012 450.552 172.407 172.358 101.809 4387.98 996.411 305.55 119.296 5611.73 101.739 261.621 85.5769 68.8712 16.7057 110.186 116.726 47.1117 40.6058 39.6535 17.5577 16.8546 10.7934 97.9026 69.498 56.8778 3391.57 272.804 51.5313 690.861 33.3629 67.7932 60.7942 47.055 8.79685 440.432 37.333 132.753 9.85615 43.3126
internal_count=110437 80288 77430 30149 76731 75208 75137 28882 75070 1267 2858 966 1523 785 28616 6127 1766 1163 73907 1045 3089 906 786 120 699 611 266 301 207 118 153 92 498 354 288 22489 1691 274 4361 176 477 397 297 79 2769 207 759 67 237
is_linear=0
shrinkage=0.1


Tree=14
num_leaves=50
num_cat=0
split_feature=11 23 14 51 13 25 19 16 25 16 41 24 11 7 42 43 24 38 11 8 11 19 18 10 33 32 8 48 17 31 37 46 2 42 26 33 33 8 51 46 39 4 32 48 42 33 16 20 49
split_gain=9193.74 1573.41 386.601 83.018 69.9661 43.2903 41.7555 36.2993 33.4144 29.3634 30.1488 29.1988 46.7197 26.224 23.2175 21.7381 60.7281 21.6748 21.0906 20.6689 20.6661 22.4923 19.6295 19.4878 18.942 18.434 17.7215 20.144 17.1019 20.0052 16.4729 15.9256 15.1643 14.7261 13.192 12.3272 13.037 14.1632 12.1116 13.3901 12.0288 11.5592 10.9091 10.3765 10.0257 9.71636 9.56845 8.532 11.4181
threshold=14942208.000000002 2.5000000000000004 5.5000000000000009 826.00000000000011 1536.0000000000002 294912.00000000006 1.5000000000000002 4.5000000000000009 1024288.0000000001 3.5000000000000004 8.5000000000000018 49.500000000000007 947060736.00000012 1.0000000180025095e-35 222.50000000000003 10.500000000000002 24752.000000000004 3097.1250000000005 440664064.00000006 4146.0000000000009 17301504.000000004 1.0000000180025095e-35 4.5000000000000009 33920.000000000007 0.0033911177478400003 4.4036682923250012 57443.500000000007 7.9886063639800007 1.5000000000000002 4.5000000000000009 157440.00000000003 3.9570910930800003 3218.0000000000005 48.500000000000007 80600.000000000015 0.10230433372750002 4.1837664281850007 188555.50000000003 713.50000000000011 4.0509173284500006 4094.0000000000005 21.500000000000004 5.6570176439850011 5.9720110193300009 147.50000000000003 3.4729821074650005 8.5000000000000018 71680.000000000015 558.14285714300013
decision_type=2 2 2 2 2 2 2 2 2 2 2 2 2 2 2 2 2 2 2 2 2 2 2 2 2 2 2 2 2 2 2 2 2 2 2 2 2 2 2 2 2 2 2 2 2 2 2 2 2
left_child=1 2 4 9 5 7 14 -1 20 10 18 12 23 38 17 16 -16 -7 33 -6 21 42 -4 -10 -21 31 -18 -28 34 -30 -8 40 -17 -2 -13 -25 37 44 39 -3 -26 -20 -5 -27 -37 -35 47 48 -19
right_child=3 13 22 8 19 6 30 -9 11 -11 -12 28 -14 -15 15 32 26 46 41 24 -22 -23 -24 35 25 43 27 -29 29 -31 -32 -33 -34 45 -36 36 -38 -39 -40 -41 -42 -43 -44 -45 -46 -47 -48 -49 -50
leaf_value=-0.10921431950109017 -0.06119675471331687 0.085491874290088976 -0.10593605253290833 0.06840062021681019 0.12509033183794246 0.035016710305525056 -0.10962739129925803 0.11008405574915366 0.079441393058836185 0.12367963835750961 -0.063226995547999862 0.10686736035286981 0.1082763699691637 -0.05918172950666243 -0.10003195397598962 -0.096830933994560345 -0.089346870255835362 -0.10751271002566501 0.10590060293815867 -0.10892856168836954 0.11929819638602451 0.11750851820718698 0.10428936025100521 -0.104796555040347 -0.05009391136083742 -0.016773823392310514 0.18613875456548384 -0.082421652192658512 -0.19653596182605682 0.092983339339124393 0.13663068537459169 0.1031141600966774 0.17237054149771297 0.060746389293432269 -0.086593773512386688 0.0017929223062377493 -0.12046335773914951 -0.056130245212998399 0.11259468468546417 -0.058384025407256568 0.082071682636929016 -0.055154804022212546 -0.040585463923665938 -0.093920120126630369 0.12064560757803244 -0.040424401864773474 0.032573536353974107 -0.10589627731976994 -0.011249002661443399
leaf_weight=13.254359960556032 19.681045733392239 27.876246780157089 4.6512127146124831 117.72863475233316 7.5483700186014167 11.025872945785521 3.7161698415875408 17.531631171703339 27.727292589843273 39.959223240613937 29.63116393238306 746.81701259315014 98.84747701138258 9.687880299985407 37.785435475409031 132.1281958296895 3.990669101476672 27.448965027928352 54.608833588659763 35.233259811997414 2896.7653455734253 144.41730869561434 98.558854356408119 13.749360814690588 27.515073038637638 31.71377969533205 16.748966008424762 3.351872280240058 4.0693104267120344 5.7718163281679153 10.096481472253799 15.780518986284731 2.126187562942504 44.595061898231506 3.5414194315671912 13.505098700523378 7.4280155450105658 14.883073322474955 375.8243215456605 8.4230715185403806 9.1850332692265493 4.852289304137229 9.9614121839404088 38.724040284752846 14.958419248461722 12.059922337532042 5.0253159776329985 4961.890014514327 22.358068004250526
leaf_count=153 144 160 44 707 45 76 50 103 165 252 196 4985 653 89 490 1761 46 342 336 414 20900 1014 655 84 240 257 93 38 19 34 65 102 12 243 21 71 42 68 2562 47 59 32 48 406 71 64 42 71745 192
internal_value=-0.00217837 -0.0827304 -0.0969122 0.108796 -0.100554 -0.102566 -0.103261 0.015669 0.111889 0.0467467 0.0281636 0.0954527 0.0605098 0.103444 -0.10372 -0.0699661 -0.0209277 -0.105037 0.0481051 -0.0365716 0.116823 0.0904742 0.0948154 0.00932774 -0.0442875 -0.0257589 0.103141 0.141356 0.104237 -0.026733 0.0703772 0.0191059 -0.0925676 0.0133234 0.105954 -0.0208016 0.00194363 0.0229197 0.107267 0.0521062 -0.0170165 0.0927578 0.0598983 -0.0591859 0.0642535 0.0392106 -0.105345 -0.105483 -0.0643005
internal_weight=10284.8 5959.2 5537.39 4325.56 5434.18 5268.48 5237.69 30.786 4120.17 205.388 165.428 951.298 191.099 421.812 5223.88 196.131 61.8769 5027.75 135.797 165.7 3168.87 272.107 103.21 92.2513 158.152 122.918 24.0915 20.1008 760.2 9.84113 13.8127 52.4806 134.254 76.336 750.358 64.524 50.7746 43.3466 412.124 36.2993 36.7001 59.4611 127.69 70.4378 28.4635 56.655 5016.72 5011.7 49.807
internal_count=110437 80288 77430 30149 76731 75208 74952 256 28882 1267 1015 6213 1154 2858 74837 2440 667 72397 819 1523 22669 1769 699 501 1478 1064 177 131 5059 53 115 401 1773 451 5006 336 252 210 2769 207 299 368 755 663 142 307 72321 72279 534
is_linear=0
shrinkage=0.1


Tree=15
num_leaves=50
num_cat=0
split_feature=11 23 14 53 53 34 50 45 22 25 34 51 3 48 11 22 11 22 52 24 48 8 46 31 52 53 48 34 39 39 8 11 51 2 24 22 20 48 46 33 3 45 52 4 9 51 34 36 51
split_gain=8128.48 1399.24 344.685 91.9455 88.8758 112.282 63.8896 42.7718 40.0473 39.949 34.6065 33.588 32.3635 28.0973 26.5314 21.5578 20.8698 36.0189 24.4435 20.0047 18.9756 18.8264 16.8338 15.4448 15.4259 15.1296 16.6583 14.3811 14.3394 13.8877 13.6828 13.3788 15.1436 13.1431 16.3541 12.8677 13.5169 12.3923 16.1299 16.199 12.3302 11.9566 11.9154 11.8144 11.5432 11.529 13.614 11.9782 11.181
threshold=14942208.000000002 2.5000000000000004 5.5000000000000009 14.500000000000002 15.500000000000002 6.7901269840250009 48.500000000000007 35.500000000000007 1.0000000180025095e-35 1024288.0000000001 6.5879339745050007 2218.0000000000005 6.5000000000000009 4.9262675811900012 732430336.00000012 11856.500000000002 17301504.000000004 1.0000000180025095e-35 1.0000000180025095e-35 49.500000000000007 3.5059314418800005 52083.500000000007 4.8773401238250012 6.5000000000000009 1.0000000180025095e-35 15.500000000000002 4.9372113924350005 7.9269655399650008 12294.000000000002 56.500000000000007 6140.0000000000009 397901824.00000006 866.00000000000011 288.50000000000006 34080.000000000007 202167.50000000003 123136.00000000001 7.9554701172600009 4.3055641598150016 2.3525062913550006 9.5000000000000018 742.50000000000011 1.0000000180025095e-35 20.500000000000004 2816.0000000000005 7991.0000000000009 6.7132303187600009 4352.0000000000009 1109.0000000000002
decision_type=2 2 2 2 2 2 2 2 2 2 2 2 2 2 2 2 2 2 2 2 2 2 2 2 2 2 2 2 2 2 2 2 2 2 2 2 2 2 2 2 2 2 2 2 2 2 2 2 2
left_child=1 2 4 8 41 6 7 11 -2 16 31 24 29 40 19 30 17 -5 21 28 -4 -19 -22 -9 48 26 -14 -16 -12 -3 -8 32 -11 34 45 36 -21 44 39 -39 43 -1 -32 -10 -7 -17 47 -47 -6
right_child=3 12 20 9 5 37 15 23 13 10 14 -13 25 -15 27 33 -18 18 -20 35 22 -23 -24 -25 -26 -27 -28 -29 -30 -31 42 -33 -34 -35 -36 -37 -38 38 -40 -41 -42 -43 -44 -45 -46 46 -48 -49 -50
leaf_value=-0.10497336563445624 -0.10072946457209296 -0.094948005106813713 -0.12567452488558253 -0.14465538883861681 -0.088988329393752882 0.11117541886968195 0.15105767329830375 0.077833006876081273 0.10537935138484185 0.028259395880766265 -0.067951692626589164 -0.095237821396361944 0.081899415909528428 -0.019139808959427795 0.098174096519444393 0.072163030738672626 0.11701629700851393 0.052602483750978285 0.10922340562627085 0.11842944261309335 0.110309930758529 -0.14578815001663334 -0.082764564632943294 -0.096184493716275063 0.16877657128336304 0.11362172621801843 -0.083630686799545537 -0.1235802644609956 0.11313286290867962 0.057620364100350333 -0.094424590205686817 0.10963969629210178 0.092459093724608102 0.13032973414741164 0.17481754810725428 0.0789658434399374 -0.11273134895505224 -0.039148623409102634 -0.083889686214705717 0.21083127213741348 -0.051026195702475075 0.19665656119583422 0.12721112047700875 -0.050552210146394695 -0.10636052152931592 -0.09665891122486675 0.14509654638736735 0.050478592998821861 0.071492459396280239
leaf_weight=4223.0029634572566 20.997851759195328 11.058827288448812 3.86689119786024 6.5285530835390082 9.3648958653211647 2.4541905969381324 3.2846259772777584 28.132078126072884 69.060928516089916 44.001140013337135 32.196056246757507 139.10670802742243 26.601823136210442 40.449641726911068 83.128403276205063 24.188267081975937 2682.0097959637642 46.919357612729073 199.25168819725513 3.6931096464395514 88.094720974564552 5.3262574076652518 4.7597750201821318 6.2297352477908126 6.2231179326772681 336.22205193340778 7.8806851133704177 3.0310986638069144 5.06017842888832 12.956020474433897 19.861417219042782 496.12540933489799 222.71279454231262 22.369724318385124 7.9356170296668997 40.81245693564415 8.0291455090045911 6.850595720112322 33.758165910840034 4.1702989265322685 6.325989067554473 1.3145957216620434 2.7631018832325926 5.2267243936657897 401.90436954051256 17.02539852261544 4.2260140031576148 8.19644897431135 8.0934458300471288
leaf_count=66974 213 88 28 33 93 11 15 151 455 235 158 1916 159 251 564 136 20985 267 1452 20 634 23 37 79 30 2489 44 14 23 78 203 3648 1478 141 43 225 40 79 435 37 34 6 14 31 6096 147 27 42 56
internal_value=-0.00217395 -0.0814971 -0.0955968 0.105774 -0.0992278 -0.0676534 -0.0210439 -0.0550964 0.0267581 0.108668 0.0907088 -0.076496 0.099864 0.0488702 0.0507313 0.0400703 0.114403 0.0872398 0.0932595 0.0126931 0.0913739 0.0323773 0.100413 0.0462839 0.0335947 0.107152 0.0440689 0.0903728 -0.0433566 -0.0126373 -0.0396671 0.0999297 0.0818677 0.0646819 0.0408313 0.052442 -0.0399039 -0.0995126 -0.0495974 0.0554436 0.0829957 -0.104879 -0.0673565 0.0944083 -0.10504 0.0210076 -0.0210111 -0.048843 -0.0145917
internal_weight=9492.78 5471.9 5077.18 4020.89 4980.46 756.138 307.001 197.15 142.061 3878.83 938.79 162.788 394.719 121.063 175.95 109.851 2940.04 258.026 251.497 89.7909 96.7214 52.2456 92.8545 34.3618 23.6815 370.705 34.4825 86.1595 37.2562 24.0148 25.9091 762.839 266.714 83.9415 61.5717 52.5347 11.7223 449.138 44.7791 11.0209 80.6136 4224.32 22.6245 74.2877 404.359 53.6361 29.4479 25.2218 17.4583
internal_count=110437 80288 77430 30149 76731 9751 3093 2325 984 29165 6405 2095 2858 771 1044 768 22760 1775 1742 466 699 290 671 230 179 2692 203 578 181 166 232 5361 1713 536 395 285 60 6658 551 116 520 66980 217 486 6107 352 216 189 149
is_linear=0
shrinkage=0.1


Tree=16
num_leaves=50
num_cat=0
split_feature=11 23 14 53 34 53 6 38 14 11 41 10 53 16 22 22 20 48 19 22 44 24 2 34 24 48 41 45 41 22 31 18 41 6 44 3 14 45 22 3 9 20 53 33 33 31 22 39 48
split_gain=7199.89 1246.38 307.904 86.8951 104.079 86.319 42.4424 51.8613 40.2175 76.259 38.4182 34.6968 30.1687 29.9744 23.9311 20.2636 19.7294 17.397 17.1196 17.0126 15.6598 15.0594 14.5795 13.5218 13.2578 12.6044 15.812 19.688 12.5209 14.8512 12.5094 48.8262 11.6356 14.0136 11.4969 11.4209 11.0654 11.0435 10.9794 12.5073 10.3077 10.2907 21.0114 20.8766 10.0536 9.6451 9.51501 9.47157 9.2004
threshold=14942208.000000002 2.5000000000000004 5.5000000000000009 15.500000000000002 6.7901269840250009 14.500000000000002 126208.00000000001 37918.625000000007 5.5000000000000009 397901824.00000006 1.5000000000000002 4736.0000000000009 15.500000000000002 3.5000000000000004 1.0000000180025095e-35 154056.50000000003 243712.00000000003 5.1791653698900006 1.0000000180025095e-35 11856.500000000002 117.50000000000001 304.00000000000006 8228.0000000000018 7.9269655399650008 304.00000000000006 7.9554701172600009 11.500000000000002 51.500000000000007 4.5000000000000009 1.0000000180025095e-35 1.5000000000000002 5.5000000000000009 3.5000000000000004 284416.00000000006 1.0000000180025095e-35 7.5000000000000009 4.5000000000000009 180.50000000000003 3209414.0000000005 5.5000000000000009 2816.0000000000005 71680.000000000015 13.500000000000002 0.16888340276850003 3.8581860547000004 8.5000000000000018 128933.00000000001 4094.0000000000005 5.0272706185100011
decision_type=2 2 2 2 2 2 2 2 2 2 2 2 2 2 2 2 2 2 2 2 2 2 2 2 2 2 2 2 2 2 2 2 2 2 2 2 2 2 2 2 2 2 2 2 2 2 2 2 2
left_child=1 2 3 37 6 11 7 19 9 10 -7 47 22 28 36 -8 44 -9 24 -5 -18 48 32 45 -4 40 27 -27 29 -13 31 -10 -3 46 -19 -14 -12 41 39 -17 -6 42 -1 -44 -16 -11 -34 -2 -21
right_child=5 12 18 4 25 8 15 17 30 23 14 13 35 -15 16 38 20 34 -20 21 -22 -23 -24 -25 -26 26 -28 -29 -30 -31 -32 -33 33 -35 -36 -37 -38 -39 -40 -41 -42 -43 43 -45 -46 -47 -48 -49 -50
leaf_value=-0.093515241702801316 0.10752362602906709 -0.08435062092822368 -0.14808025185402215 -0.046667837246974653 0.10416622583445721 0.099346496267317341 -0.05991671028641813 0.017601938481593821 -0.30917985525048347 0.10941376590981611 -0.0013666240008296067 -0.10199706255960242 0.034982699749678207 0.11605993543512619 0.072667289830516998 -0.099355406230980603 -0.013070073618131828 -0.096161750969155843 0.10660134973988189 0.058810369119686248 0.095556423192207723 0.11074174899474312 0.097462699483657961 -0.090727509376665738 0.058410595888782668 -0.015621902909611114 -0.1021639776861209 0.30562497414692302 -0.075664316645574478 0.046369619180197108 0.11504532527759903 0.11655620874687329 -0.015312542276974895 -0.13391203014003622 0.18349813565765455 0.11261520346944805 -0.14554178660128772 0.049988498048215091 -0.044704679478666458 0.095477877634598529 -0.10539720482362765 -0.1047029238120275 -0.097185354251058842 0.17664654498985125 -0.011480005677063344 -0.038727277836367681 0.16182096208684704 -0.061562407729641888 -0.058706594028655648
leaf_weight=40.805463045835495 43.463441073894501 14.384789504110815 4.8365515395998946 23.870328024029732 2.3622203469276419 140.26470360904932 15.474782090634106 16.192013010382652 3.4131277799606332 959.54631393402815 11.828294441103935 9.2156433612108213 20.22443974763155 15.303133569657801 146.46526330709457 3.5171264559030524 74.542900085449219 120.09694117680192 76.880557060241699 14.028933413326742 16.145906567573547 25.223320439457893 16.616229608654976 3.4107068926095954 8.7068725004792196 17.388013470917944 23.472151931375265 2.1428676918148986 39.992970086634159 25.182349972426891 2194.7938625961542 12.782721474766731 5.1333798542618769 3.6243852078914633 1.4882279634475697 300.76759020984173 9.6798527240753174 4.6570210531353942 7.6360638551414004 52.141147017478943 366.81286843121052 3799.3087793216109 4.8470719791948778 6.5416323840618134 15.722662612795828 4.4151946604251853 7.4100338369607925 3.5862391144037238 12.686581425368784
leaf_count=557 311 99 48 219 11 1041 138 114 23 7798 64 102 126 100 917 40 383 1887 599 78 82 136 112 17 52 195 339 17 317 136 18570 105 30 32 8 2418 51 40 62 315 6096 66294 53 36 85 29 41 18 96
internal_value=-0.00216894 -0.0803682 -0.094388 -0.0980109 -0.0657179 0.103067 -0.0200809 -0.0432194 0.106035 0.0926529 0.0567735 0.0250859 0.0967505 -0.0113969 0.0350104 0.0426603 0.0436232 -0.0797711 0.0883388 0.0232104 0.00626939 0.0553254 0.0220748 0.108032 -0.0153303 -0.098088 -0.0468508 0.0196243 -0.0376163 0.00662037 0.114399 0.0268362 -0.0189254 0.0392846 -0.0927387 0.107724 -0.0662534 -0.103911 0.0677393 0.0831661 -0.104056 -0.104097 -0.059996 0.0601027 0.06451 0.108735 0.0893292 0.0946355 0.00300428
internal_weight=8749.03 5019.28 4651.12 4560.69 704.534 3729.76 292.355 213.586 3593.01 1382.02 414.65 136.744 368.161 89.6941 274.385 78.7691 252.877 137.777 90.424 75.8092 90.6888 51.9388 47.1688 967.372 13.5434 412.178 43.003 19.5309 74.391 34.398 2210.99 16.1958 30.5526 16.1678 121.585 320.992 21.5081 3856.16 63.2943 55.6583 369.175 3851.5 52.1942 11.3887 162.188 963.962 12.5434 47.0497 26.7155
internal_count=110437 80288 77430 76731 9751 30149 3093 2538 29165 10467 2623 984 2858 655 1582 555 1467 2009 699 529 465 310 314 7844 100 6658 551 212 555 238 18698 128 202 103 1895 2544 115 66980 417 355 6107 66940 646 89 1002 7827 71 329 174
is_linear=0
shrinkage=0.1


Tree=17
num_leaves=50
num_cat=0
split_feature=11 23 14 25 53 36 22 31 11 16 17 31 53 11 52 16 45 46 20 53 8 20 48 24 42 42 46 46 40 37 2 51 25 40 52 42 10 51 44 51 20 42 42 22 22 38 22 19 13
split_gain=6382.71 1110.8 274.988 87.1871 86.1769 99.4076 71.6787 40.081 55.938 39.6798 30.5763 44.5962 27.9154 22.8126 32.6048 22.435 21.3602 26.2806 25.0771 20.6938 19.8829 19.2124 18.3234 17.9329 16.8414 16.6793 15.4446 13.7139 13.3492 13.2783 13.7535 13.2203 13.1896 12.7431 39.0822 14.057 12.0992 12.0014 16.9513 11.8222 11.2072 10.3589 9.46075 10.773 9.39668 9.2967 9.02013 8.45033 11.8531
threshold=14942208.000000002 2.5000000000000004 5.5000000000000009 1024288.0000000001 15.500000000000002 93.000000000000014 1.0000000180025095e-35 4.5000000000000009 1831043072.0000002 4.5000000000000009 1.0000000180025095e-35 2.5000000000000004 15.500000000000002 17301504.000000004 1.0000000180025095e-35 1.5000000000000002 35.500000000000007 3.8467405879200003 1267712.0000000002 14.500000000000002 12744.500000000002 333824.00000000006 3.4880309320450005 32800.000000000007 14.500000000000002 519.50000000000011 4.5836862542850012 4.8773401238250012 100022.00000000001 779520.00000000012 782.50000000000011 222004.00000000003 1102960.0000000002 36636.000000000007 1.0000000180025095e-35 104.50000000000001 12672.000000000002 599.00000000000011 1.5000000000000002 826.00000000000011 2983936.0000000005 396.50000000000006 58.500000000000007 56229.500000000007 56229.500000000007 3417.2500000000005 11389620.000000002 1.5000000000000002 1536.0000000000002
decision_type=2 2 2 2 2 2 2 2 2 2 2 2 2 2 2 2 2 2 2 2 2 2 2 2 2 2 2 2 2 2 2 2 2 2 2 2 2 2 2 2 2 2 2 2 2 2 2 2 2
left_child=1 2 4 13 25 46 47 10 15 16 -8 -12 29 14 20 19 17 23 26 37 -2 -13 -4 -7 -21 33 36 -24 -26 30 -3 -27 -10 34 -1 44 45 38 -9 -38 -30 -18 43 -28 -36 -19 -6 48 -5
right_child=3 12 22 6 5 9 7 8 32 -11 11 21 -14 -15 -16 -17 41 18 -20 24 -22 -23 27 -25 28 31 42 -29 40 -31 -32 -33 -34 -35 35 -37 39 -39 -40 -41 -42 -43 -44 -45 -46 -47 -48 -49 -50
leaf_value=-0.0954144462490472 0.080498766889908133 -0.012550689970350346 -0.14373079403901762 -0.096958138003790717 -0.10420584066721322 -0.022749083688663595 0.1065088114477816 -0.13065046749837986 0.10607326611857362 0.099693699254680801 -0.36134196751938985 0.10083072816792416 0.10502694955213904 0.11331613481693426 0.1011420750843498 0.10394519723714646 0.067967690666783348 0.11941285601716278 -0.099806691645754786 -0.12883293761332862 -0.041776403023421789 -0.12779560240570373 0.10481129979597135 -0.094879113074229859 0.070329894575109311 -0.10937957982291605 -0.057237189056864639 -0.078219022643633868 0.0010320235778601883 -0.15571427385132514 0.10396728073036872 0.18286746853807759 -0.11845323217836215 -0.10405640984713856 0.090200394841871465 -0.061251778148120807 -0.090254123925938692 -0.099309435313119518 0.06245732610284508 0.076414180200942428 0.10457126208391498 -0.032952752145786413 -0.098753080801508061 0.17157119574931845 0.32671059135852831 -0.13521750007998631 0.081464287311762612 0.11885694286023446 0.014151612855495805
leaf_weight=41.676004271954298 23.816859945654869 23.649465166032314 3.3468181937932959 28.049296770244837 324.65880367532372 51.123627562075853 452.68305420130491 6.4081263318657902 169.34210993349552 23.691274452954531 3.1523025780916241 14.746382035315039 297.56755992770195 2280.4268590658903 175.25352926552296 34.301916182041168 27.269747246056795 1.9042054414749134 22.961251851171255 6.267886519432067 30.112020343542099 4.8959452360868445 76.670893773436546 105.80002591013908 73.157541930675507 2.6860823892056933 5.23044551163912 4.3245977796614161 85.084681361913681 3.8975240737199774 17.721689879894257 3.6529671438038349 2.6574174687266341 3460.1613492406905 3.3850353509187681 2.7376219742000103 4.6665065027773371 20.990798078477383 15.640781275928019 48.368830066174269 11.918524183332918 16.220536269247532 14.947736632078884 3.392371192574501 3.3348077163100243 5.8051097728312016 2.6378068625926963 2.8524243682622901 14.598228730261324
leaf_count=608 163 145 25 255 6021 440 3735 41 1407 162 17 110 2544 21076 1464 264 171 14 347 32 154 27 637 1731 499 38 65 37 468 35 134 23 16 66241 24 26 35 162 83 363 72 128 163 19 20 53 39 15 89
internal_value=-0.00216216 -0.0792711 -0.0932052 0.100539 -0.0968155 -0.0636194 0.0746801 0.0808625 0.0585769 -0.0250112 0.100818 -0.0121893 0.0938972 0.110294 0.0802189 0.0287362 -0.0346131 -0.045303 -0.00715756 0.0169814 0.0122245 0.0438445 0.085564 -0.0713801 0.0321478 -0.103031 0.0180732 0.0950387 0.0380776 0.0207375 0.0373608 0.0590319 0.102604 -0.103324 -0.0537677 0.129756 0.0447336 -0.0451891 0.00633395 0.0617493 0.0137536 0.0303275 -0.0506343 0.0327801 0.207572 -0.0723237 -0.102709 -0.04778 -0.0589253
internal_weight=8059.85 4603.49 4260.65 3456.36 4176.31 658.678 946.747 901.247 425.77 331.382 475.478 22.7946 342.836 2509.61 229.182 253.77 307.69 264.2 107.276 219.468 53.9289 19.6423 84.3423 156.924 176.429 3517.63 84.3152 80.9955 170.161 45.2687 41.3712 6.33905 172 3511.29 51.1335 9.45747 60.7447 43.0397 22.0489 53.0353 97.0032 43.4903 23.5706 8.62282 6.71984 7.70932 327.297 45.4999 42.6475
internal_count=110437 80288 77430 30149 76731 9751 7292 6933 3044 3691 3889 154 2858 22857 1781 1621 3529 3230 1059 1357 317 137 699 2171 1071 66980 712 674 1039 314 279 61 1423 66919 678 70 465 286 124 398 540 299 247 84 44 67 6060 359 344
is_linear=0
shrinkage=0.1


Tree=18
num_leaves=50
num_cat=0
split_feature=11 34 25 2 25 53 36 53 34 25 24 11 52 39 45 34 53 42 47 53 15 11 13 33 8 33 11 44 39 34 11 42 42 45 47 5 2 34 5 39 44 47 42 50 47 53 53 39 50
